svm_type c_svc
kernel_type rbf
gamma 0.001
nr_class 2
total_sv 64
rho 0
label 1 -1
nr_sv 34 30
SV
-7.863406374704118 1:0.77397418 2:30.552538 3:0.92619449 4:1.5676525 5:5.2551041 6:3.5361402 7:-0.14062592 8:0.048710182 9:-0.0040767016 10:-0.10051798 11:0.28940248 12:1.9120289 13:159.31857 14:2.7343495 
-0.9706499015072373 1:0.99101609 2:31.632977 3:0.41655064 4:2 5:2.0988231 6:4 7:0.98842198 8:1 9:1.3663092e-17 10:1.36932e-17 11:1 12:1.008984 13:928.46716 14:1 
1.063852190766563 1:1 2:33.169998 3:1.04 4:2 5:12 6:8 7:6.5 8:1 11:1 12:2 13:164 14:31286 
1.026704399619241 1:2.5132325e-15 2:22.83 3:2.29 4:2 5:11 6:8 7:2.29 8:1 9:1 10:7 11:1 12:2 13:140 14:2385 
2.742121984844562 1:0.67353344 2:30.026516 3:3.878628 4:1.5336883 5:6.326488 6:4.7089009 7:1.6397524 8:0.24292108 9:0.059294172 10:0.33518797 11:0.65385693 12:1.7760386 13:281.48303 14:2.9400964 
-11.84059128259751 1:0.95036489 2:29.651737 3:-3.2802615 4:0.99518633 5:-2.4167871 6:0.72482967 7:-3.6132009 8:-1.693706 9:-0.56016141 10:-4.0844302 11:0.29397878 12:2.3923771 13:102.803 14:9.045352899999999 
-0.802228316034952 1:-0.026564144 2:27.787027 3:-0.97505099 4:1.7187033 5:9.8778048 6:4.6101265 7:0.18791191 8:-0.28779572 9:-0.38731366 10:-0.50616002 11:0.53064209 12:1.5357771 13:355.97073 14:-1.1784592 
1.790211418543002 1:0.0034530754 2:47.72411 3:8.0466213 4:2 5:8.0069094 6:4.0172672 7:7.9168758 8:1.0000004 9:1.0000004 10:6.0172696 11:0.99654645 12:2 13:-3.6980524e-05 14:1260.7928 
3.882416541285059 1:0.042892892 2:56.351486 3:15.901816 4:2.0283134 5:5.1555209 6:1.2450224 7:0.27641425 8:1.0000144 9:1.0377311 10:15.287459 11:0.052268535 12:2 13:0.088725895 14:249.31667 
-1.036006022016251 1:-2.3222599e-05 2:57.080589 3:0.33490741 4:1.9999981 5:2.9997253 6:5.0000234 7:0.9998976000000001 8:0.99999809 9:-2.5153478e-05 10:-7.5460433e-05 11:0.99999809 12:2 13:251.99898 14:2197.9978 
-1.059001744522343 1:1 2:19.17 3:4.0000005 4:1 5:2.9999993 6:4 7:1.0000001 8:-1.1958959e-07 9:-2.2324104e-11 10:-1.3394078e-10 11:1 12:2 13:360 14:1001 
1.032998142674246 1:0.00018671484 2:25.000311 3:0.87516338 4:1.9998133 5:13.998879 6:7.9992533 7:1.0399925 8:1 9:0.00018671484 10:0.00093357422 11:1 12:2 13:160 14:5860.9844 
-3.443048589482525 1:0.69042194 2:22.960546 3:-2.1297443 4:1.8243241 5:-0.5000326 6:3.595634 7:-3.0176685 8:-1.1854444 9:0.27184382 10:1.4735599 11:1.0342438 12:2.1086035 13:221.11996 14:7.0962982 
0.9786432374023424 1:0.9999898699999999 2:42.499802 3:4.9150677 4:1.0000101 5:9.000041 6:4 7:3.1649683 8:1 9:2.7436439e-12 10:8.230929e-12 11:0.9999898699999999 12:2 13:52.000282 14:1442.999 
4.649720413681899 1:0.45778364 2:43.016438 3:5.4195957 4:2.5852304 5:21.193037 6:5.8329873 7:11.97079 8:2.7577152 9:1.6526099 10:10.253888 11:0.28533915 12:2.283952 13:-1.1623893 14:-7.2491732 
11.59250872252422 1:0.47244948 2:20.122162 3:9.930418 4:2.3547213 5:15.011439 6:6.0603499 7:4.5853047 8:1.9776077 9:1.2155164 10:5.9676547 11:0.22036965 12:1.5507659 13:96.299881 14:-0.98772824 
-3.507395285876064 1:1.0007793 2:29.126543 3:0.47879198 4:1.9844686 5:7.9636598 6:4.0422387 7:0.43243149 8:0.0044898633 9:0.013152919 10:0.029713675 11:0.022722805 12:2 13:219.16147 14:140.8455 
-4.044643382286461 1:0.13045752 2:29.16268 3:2.0766256 4:1.9547533 5:10.228333 6:3.9628797 7:2.258842 8:0.91059464 9:-0.037158612 10:-0.18634142 11:0.94695777 12:1.9527918 13:440.08963 14:1.6416128 
-1.823895929562028 1:0.80766016 2:32.126873 3:5.487689 4:1.4953564 5:8.644800200000001 6:3.7826104 7:3.0903182 8:0.86775368 9:0.26931441 10:-0.20174383 11:0.39867172 12:1.7518104 13:196.67531 14:1.7259679 
8.705305549105496 1:0.99957842 2:35.642006 3:2.3520653 4:2.3351357 5:12.594589 6:5.7959495 7:2.3657062 8:2.0653336 9:0.014396537 10:0.14758934 11:0.37747297 12:2 13:251.9391 14:198.90244 
-9.216342947268028 1:1.0069858 2:32.067455 3:3.3446076 4:1.766434 5:-0.52858859 6:4.6899939 7:2.4310896 8:-0.92226887 9:0.053409673 10:0.054783929 11:1.2010685 12:2 13:219.89265 14:199.69302 
-18.02475517087039 1:0.83498216 2:26.6269 3:6.1679597 4:1.4545144 5:2.0999804 6:4.4194326 7:-0.0062792394 8:-0.38707942 9:-0.059260853 10:-0.8898769600000001 11:0.46571261 12:1.7243644 13:2.0006843 14:8.6430244 
1.048340937229601 1:0.97376776 2:31.789053 3:16.317715 4:2 5:2.1030741 6:3.9946625 7:3.0332654 8:1.0123231 9:1.0385386 10:9.1289797 11:1.3893549e-08 12:2 13:248.96765 14:731.63544 
1.026944685104292 1:1.0002764 2:27.000519 3:1.4969448 4:0.99972355 5:9.001943600000001 6:4 7:0.37482899 8:1.0002849 9:3.4718298e-08 10:2.0836521e-07 11:1.0000085 12:2 13:260.02295 14:1066.0009 
-0.993184378457262 1:0.99999982 2:42.775139 3:1.235996 4:2.000849 5:6.9981513 6:4.0165839 7:13.775968 8:-0.009835979 9:0.99888599 10:0.98072612 11:1.0025191 12:1.9999996 13:352.79968 14:112.47263 
-0.3232599774887977 1:1.0141722 2:29.321383 3:7.9620061 4:2.2822192 5:5.3069906 6:4.0755582 7:3.0221105 8:2.2841592 9:1.6647961 10:2.5732758 11:1.1673999 12:2.4619832 13:383.01727 14:7.123661 
-4.106805007488748 1:0.99985123 2:18.851553 3:-0.12249257 4:0.84445792 5:10.634993 6:7.7782602 7:-1.5512818 8:0.21823142 9:-0.088163607 10:-0.58739191 11:-0.07308684999999999 12:2 13:283.92337 14:209.38937 
-1.02773149726827 2:31.57 3:11.25 4:2 5:1 6:1 7:-6.838874100000001e-33 8:-1.3677747e-33 9:-1.3677747e-33 10:-2.7355495e-33 12:2 13:184 14:5201 
8.986769172217386 1:1.4271787 2:35.347652 3:7.8735228 4:2.2737539 5:11.196266 6:6.1346083 7:8.2897224 8:2.2071397 9:0.90097392 10:4.3941011 11:1.2067595 12:1.5036967 13:236.47145 14:-2.1150296 
-3.498226858462163 1:0.92826897 2:23.111221 3:3.8825991 4:1.076678 5:7.5787354 6:3.9901061 7:0.22283144 8:-0.00078650087 9:-0.00078636099 10:-0.0015587552 11:0.075888306 12:2 13:161.36703 14:1059.5897 
-9.636983595869156 1:0.98187029 2:51.917675 3:1.4336613 4:1.0082958 5:7.9082303 6:7.8948674 7:9.280969600000001 8:0.98347026 9:0.007920314600000001 10:0.077268802 11:0.99668074 12:2.0000088 13:199.35448 14:100.50814 
-1.110433991790482 1:-0.38931057 2:51.862698 3:-3.6689131 4:1.9999707 5:-0.15831403 6:6.8423681 7:-1.6379044 8:-0.38980642 9:-0.34610927 10:-3.4820096 11:-0.34410504 12:1.9999901 13:-0.12588023 14:117.09081 
-0.8484046445369935 1:0.23363838 2:20.370924 3:0.26613232 4:1.9627235 5:1.07217 6:1.4715114 7:-0.48614946 8:-0.1864343 9:1.2306039 10:4.1377592 11:0.033149935 12:1.9999974 13:155.40762 14:116.64588 
-3.043144272467633 1:0.74261481 2:24.700857 3:13.184247 4:0.93064988 5:14.865648 6:7.4996858 7:5.1815114 8:0.64770609 9:0.69807291 10:2.4527974 11:0.37579361 12:1.8127381 13:78.857376 14:-1.1852778 
-1.21282920704385 1:0.94502765 2:31.351849 3:1.1873661 4:0.9783569600000001 5:5.2374001 6:3.9606378 7:2.8626719 8:0.10936241 9:0.10394787 10:0.19864392 11:0.9091391599999999 12:2.0883188 13:320.38651 14:1.5118086 
1.02773149726827 1:1 2:32.25 3:0.16500001 4:1 5:8 6:8 7:3.25 8:1 9:1 10:1 11:1 12:2 13:432 14:8001 
-8.444783187636215 1:0.076871261 2:31.9203 3:2.9334345 4:0.20206384 5:4.9051251 6:5.1311641 7:-6.3248401 8:-1.622712 9:-1.3662091 10:-7.3254709 11:-0.84575367 12:2.3852787 13:248.52069 14:7.3076081 
6.202895199365901 1:0.97543043 2:33.223873 3:1.7256919 4:2 5:13.890182 6:7.9792438 7:4.4096928 8:0.99995923 9:0.97547245 10:3.8863461 11:0.97026998 12:2 13:253.69733 14:856.89465 
-1.900372363262682 1:0.4260273 2:16.696783 3:7.0981803 4:1.6488448 5:6.9048171 6:5.6269312 7:-0.79573047 8:-0.24463589 9:-0.10252089 10:-0.72254586 11:0.13556038 12:2.1506813 13:131.81259 14:0.20629808 
1.137859067986947 1:0.99776632 2:34.394009 3:4.2666678 4:1.9999985 5:3.0248113 6:5.0066524 7:3.2437932 8:1.0000087 9:1.0000086 10:2.0002081 11:0.0022351991 12:2 13:274.0545 14:610.867 
11.8869843738267 1:0.71067345 2:21.78441 3:-3.0404856 4:2.3341386 5:12.513735 6:3.6513722 7:3.4365723 8:0.99736059 9:0.3945407 10:1.6355366 11:0.2123985 12:1.7640035 13:-6.784739 14:-10.98467 
1.566100111471002 1:0.0014512271 2:24.738382 3:12.478881 4:1.9996389 5:6.0158558 6:4.0019846 7:1.5037546 8:1.0000355 9:0.99953938 10:11.968814 11:0.9967652 12:2 13:119.88206 14:567.99811 
4.111507115246372 1:0.13175045 2:10.408689 3:6.2134786 4:2.0829458 5:14.266632 6:4.2273273 7:-1.4056839 8:2.0134234 9:1.3377012 10:7.2645154 11:0.40043125 12:2.1236072 13:8.363154400000001 14:4.8807793 
1.031105056903789 1:0.00011138805 2:24.079496 3:0.5019244 4:2 5:10.998961 6:7.9992447 7:1.2502892 8:1 9:0.99999893 10:1.0012763 11:7.9812286e-05 12:2 13:0.0094212471 14:679.00092 
-0.9467976226618821 1:1.0000004 2:29.418713 3:1.2233609 4:2.0000019 5:7.9912071 6:8.0005302 7:0.22604841 8:-0.0034394269 9:0.99966884 10:1.9860761 11:1.0030963 12:2.0000029 13:400.10797 14:108.77225 
1.128451956332855 1:0.99888235 2:27.574881 3:2.0508521 4:1.0011176 5:6.0089412 6:4.0044703 7:1.9983236 8:1 9:1 10:2.9988823 11:1 12:2 13:369.92178 14:560.98993 
2.785234833734776 1:0.95249236 2:19.923954 3:4.4245501 4:2.0093281 5:7.3364196 6:4.187295 7:2.0886421 8:1.0263611 9:1.0242594 10:7.0918174 11:-0.0014369418 12:2 13:81.51235200000001 14:152.59702 
-2.010241800507679 1:0.57124382 2:11.400527 3:12.412247 4:2.1171362 5:11.588108 6:3.719003 7:3.1174064 8:0.85584271 9:0.64478672 10:3.5288365 11:1.3779992 12:1.3411461 13:266.05402 14:0.87062478 
1.0616038994169 2:35.42001 3:12.000005 4:2 5:10.999995 6:7.9999986 7:13.999998 8:1 9:1 10:8.0000029 12:2 14:6591 
-1.088185137333271 1:0.99999881 2:23.24531 3:0.46138129 4:0.999991 5:9.056123700000001 6:3.9554279 7:2.6062438 8:0.99999845 9:1.0100645 10:6.0604219 11:1.0115103 12:2 13:208.25967 14:348.45633 
1.018383312425999 1:1.0000262 2:24.829954 3:2.7497237 4:2 5:8.0003586 6:4.0001206 7:2.2501841 8:1.000044 9:1.0000018 10:5.9999256 11:1.4693322e-05 12:2 13:183.99681 14:600.99933 
2.762117126324519 1:1.1053512 2:33.10017 3:11.020458 4:2.1333947 5:8.644219400000001 6:5.999033 7:1.1177977 8:1.6358607 9:1.0013814 10:2.625324 11:-0.08575005099999999 12:2.9166393 13:175.30893 14:-4.0114031 
2.125280896855512 1:1.8253417 2:42.680668 3:3.1525927 4:2.0055678 5:16.174057 6:8.205899199999999 7:2.4314041 8:1.8660469 9:2.0443392 10:11.289344 11:1.7756782 12:2.0057292 13:469.20987 14:-1.6271266 
0.6694796229085149 1:1.5705553 2:47.419987 3:-4.0154095 4:0.74960423 5:15.156591 6:5.9697509 7:-4.3426723 8:-1.9179828 9:0.0566025 10:0.363619 11:0.66156459 12:2.7554734 13:333.89722 14:-4.982872 
-7.534628209297627 1:-1.1656175 2:44.828995 3:-7.1547775 4:7.2558632 5:15.845804 6:-2.4745512 7:12.332286 8:3.8349013 9:1.6499667 10:7.970377 11:1.9656254 12:-1.3299556 13:718.70569 14:-4.0311799 
4.803835246589753 1:-1.3356354 2:31.022274 3:17.135321 4:0.73681927 5:0.6815387000000001 6:-0.74608505 7:-4.6629019 8:3.2536707 9:2.2823744 10:16.786301 11:1.6336123 12:2.7106698 13:3.1593623 14:-2.6896737 
7.831797577418299 1:0.7768602999999999 2:17.457983 3:10.094414 4:0.89814723 5:17.312672 6:7.9154201 7:12.771747 8:1.0474693 9:-0.70452428 10:-1.0755711 11:1.7208616 12:1.0329279 13:160.3575 14:4.7608819 
-2.242943151770903 1:1.1866335 2:51.219193 3:2.0429223 4:2.5291834 5:2.9902003 6:5.7167063 7:3.5508702 8:0.96549535 9:0.29813063 10:2.3450003 11:0.87678605 12:1.3340722 13:298.70322 14:1.0939578 
7.773945614283417 1:0.99961311 2:18.671713 3:2.2187922 4:1.9695151 5:3.2744894 6:4.0036731 7:1.5346109 8:1.0023774 9:1.0014526 10:1.9691844 11:0.029768648 12:2 13:118.31356 14:300.49011 
1.047034018070782 2:47.419998 3:8 4:2 5:10 6:5 7:6.5 8:1 9:1 10:6 12:2 13:375 14:51101 
-0.9680400147503953 1:-0.0004903131 2:38.583439 3:5.0022678 4:2 5:13.005393 6:4 7:13.50619 8:1 9:-6.7598928e-21 10:-6.7747885e-21 11:1 12:2.0004904 13:980.0255100000001 14:1 
2.5579560881862 1:1.5877663 2:47.401955 3:10.079015 4:1.9208459 5:9.062980700000001 6:5.3366809 7:12.629864 8:1.5600609 9:0.63489395 10:2.5824256 11:0.95296848 12:1.1235234 13:117.42059 14:6.0333567 
1.03092916161122 1:1 2:20.5 3:2.415 4:2 5:8 6:4 7:2 8:1 9:1 10:11 11:1 12:2 13:200 14:3001 
1.491964431104768 1:0.66201824 2:50.83963 3:-0.65682834 4:1.2167459 5:2.8217583 6:2.2045846 7:-5.6074381 8:-0.34895679 9:-0.35939863 10:-0.90710413 11:0.043415152 12:2.7704937 13:135.05431 14:-1.5536084 
