svm_type cvc
kernel_type rbf
gamma 1
nr_class 2
total_sv 33
rho -0.00780833
label -1 1
nr_sv 17 16
SV
0.02512714378573997 1:1 2:-0.7494737 3:-0.1814286 5:-0.5384615 6:-0.25 7:-0.8887719 8:-1 9:-1 10:-1 11:1 13:-0.9 14:-0.97576 
0.0180251343118344 1:-1 2:-0.7317293 3:-0.5 5:0.07692308 6:-0.25 7:-0.9884211 8:-1 9:-1 10:-1 11:-1 13:-0.84 14:-1 
0.02725768829090632 1:-1 2:-0.5239098 3:-0.875 4:-1 5:-0.5384615 6:-0.25 7:-0.9122807 8:-1 9:-1 10:-1 11:1 13:-0.72 14:-1 
0.004056838437966983 1:1 2:-0.8896241 3:-0.5357143 5:-0.6923077 6:-0.25 7:-0.9912281 8:-1 9:-1 10:-1 11:-1 13:-0.94 14:-0.998 
0.02140190394209823 1:1 2:-0.5765414 3:-0.9285714 4:-1 5:-0.8461538 6:0.75 7:-0.7894737 8:-1 9:-1 10:-1 11:-1 13:-0.824 14:-0.98926 
0.02979083272663543 1:-1 2:0.2631579 3:-0.4942857 5:-0.5384615 6:0.75 7:-0.5263158 8:1 9:1 10:-0.9104478 11:1 13:-0.9 14:-0.999 
0.09358892536044471 1:1 2:-0.7918797 3:-0.9107143 4:-1 5:0.07692308 6:0.75 7:-0.9035088 8:1 9:1 10:-0.9104478 11:1 13:-0.86 14:-0.9958 
0.02608706655715113 1:1 2:0.3482707 3:-0.8064286 5:0.07692308 6:-0.25 7:-0.8305263 8:-1 9:-1 10:-1 11:1 13:-0.68 14:-1 
0.007915179802389646 1:1 2:-0.8120301 3:-0.9107143 4:-1 5:-0.5384615 6:-0.25 7:-0.9912281 8:-1 9:-1 10:-1 11:-1 13:-0.86 14:-0.99992 
0.0176783262569815 1:-1 2:-0.5663158 3:-0.9582143 5:-0.2307692 6:-0.25 7:-0.997193 8:-1 9:-1 10:-1 11:-1 13:-0.74 14:-0.97992 
0.02820448488078669 1:-1 2:-0.8369925 3:-0.9582143 4:-1 5:-0.2307692 6:-0.25 7:-0.9589474 8:1 9:-1 10:-1 11:1 13:-0.84 14:-1 
0.07454529818455813 1:1 2:-0.1753384 3:-0.9046429 5:-0.8461538 6:-0.25 7:-0.9884211 8:-1 9:-1 10:-1 11:-1 13:-0.832 14:-1 
0.0286406365335617 1:1 2:-0.1630075 3:-0.875 5:-0.5384615 6:-0.25 7:-0.9852632 8:1 9:-1 10:-1 11:-1 13:-0.84 14:-1 
0.03589926869244494 1:1 2:-0.8270677 3:-0.3153571 5:-0.2307692 6:-0.25 7:-0.9445614 8:-1 9:-1 10:-1 11:-1 13:-0.92 14:-0.993 
0.008789052001254653 1:1 2:-0.7368421 3:-0.9910714 4:-1 5:-0.5384615 6:-0.25 7:-0.9912281 8:-1 9:-1 10:-1 11:-1 13:-0.8 14:-0.9986 
0.02815578260822908 1:-1 2:-0.7993985 3:-0.25 4:-1 5:1 6:0.75 7:-1 8:-1 9:-1 10:-1 11:1 13:-0.846 14:-0.99936 
0.02874060193407696 1:1 2:0.1603008 3:-0.9017857 4:-1 5:0.07692308 6:0.75 7:-0.3361404 8:1 9:-1 10:-1 11:1 13:-0.8 14:-0.998 
-0.041803268213302 1:-1 2:-0.7618045 3:-0.1785714 4:-1 5:-0.3846154 6:-0.5 7:-1 8:1 9:1 10:-0.6716418 11:1 13:-1 14:-1 
-0.04026516173984302 1:1 2:-0.8069173 3:-0.4164286 5:-0.2307692 6:-0.25 7:-0.8624561 8:1 9:1 10:-0.5820896 11:-1 13:-0.94 14:-0.99684 
-0.02869187263097143 1:-1 2:-0.9374436 3:-0.9582143 5:0.07692308 6:0.75 7:-0.8947368 8:1 9:1 10:-0.9402985 11:-1 13:-0.9 14:-1 
-0.0348029408729767 1:-1 2:0.3509774 3:-0.6814286 5:0.5384615 6:0.75 7:-0.7866667 8:1 9:1 10:-0.8208955 11:-1 13:-0.957 14:-0.9888 
-0.01354907576649166 1:1 2:-0.406015 3:-0.875 5:1 6:0.75 7:-0.6842105 8:1 9:1 10:-0.880597 11:1 13:-0.747 14:-0.98286 
-0.01578556918316365 1:1 2:-0.3633083 3:-0.6428571 5:1 6:0.75 7:-0.4736842 8:1 9:1 10:-0.8208955 11:1 13:-1 14:-0.98 
-0.1034824199602512 1:1 2:0.03248126 3:-0.5685714 5:-0.5384615 6:-0.25 7:-0.997193 8:-1 9:-1 10:-1 11:-1 13:-1 14:-0.9462 
-0.01611533863793285 1:1 2:-0.5239098 3:-0.6785714 5:0.2307692 6:-0.25 7:-0.4736842 8:1 9:1 10:-0.9402985 11:1 13:-0.67 14:-1 
-0.0178486535419881 1:-1 2:-0.8445113 3:-0.3571429 5:-0.2307692 6:-0.25 7:-0.9473684 8:1 9:1 10:-0.9402985 11:-1 13:-0.912 14:-0.98818 
-0.01785518624873477 1:-1 2:-0.7392481 3:-0.5953571 5:0.5384615 6:-0.25 7:-0.8185965 8:1 9:1 10:-0.7910448 11:-1 13:-0.871 14:-0.93486 
-0.0030858140463171 1:1 2:-0.4285714 3:-0.8928571 5:0.8461538 6:0.75 7:-0.6140351 8:1 9:1 10:-0.9104478 11:1 13:-1 14:-1 
-0.08363909003413987 1:1 2:-0.4159399 3:-0.7828571 4:-1 5:0.07692308 6:0.75 7:-0.8568421 8:1 9:1 10:-0.9701493 11:1 13:-0.82 14:-0.63946 
-0.0155233927612833 1:-1 2:-0.4911278 3:-0.1428571 5:0.07692308 6:-0.25 7:-0.8596491 8:1 9:1 10:-0.9701493 11:-1 13:-0.78 14:-0.99962 
-0.02362430031184701 1:1 2:-0.7193985 3:-0.8214286 5:0.07692308 6:-0.25 7:-0.9238596 8:1 9:1 10:-0.6716418 11:1 13:-0.94 14:-0.95632 
-0.01892865473010536 1:1 2:-0.6015038 3:-0.9464286 5:0.07692308 6:0.75 7:-0.7017544 8:1 9:1 10:-0.9104478 11:1 13:-0.688 14:-0.997 
-1 1:0.1 2:0.2 3:0.3 4:0.4 5:0.5 6:0.6 7:0.7 8:0.8 9:0.9 10:1.0 11:1.1 12:1.2 13:1.3 14:1.4
CPU Time = 0.000000 second
