svm_type c_svc
kernel_type rbf
gamma 0.00130719
nr_class 2
total_sv 14
rho 0.377495
label 1 -1
nr_sv 7 7
SV
1 209:0.4997428 210:1.339524 211:1.901183 212:2.296918 213:2.296015 214:1.020923 215:0.7839045 216:1.362638 217:0.5450332 236:0.7864565 237:2.085839 238:2.260924 239:2.272519 240:1.705127 241:1.896321 242:2.269184 243:2.261905 244:2.295551 245:1.608505 262:0.03816815 263:0.5170843 264:2.168901 265:2.263836 266:1.726103 267:0.5958782 268:0.04599387 269:0.1097797 270:1.645054 271:2.264817 272:2.299702 273:1.110705 290:0.8992697 291:2.277681 292:2.274722 293:1.696511 294:0.1346156 297:0.8565223 298:2.293471 299:2.279806 300:2.062502 301:0.2052235 317:1.33066 318:2.340225 319:2.283299 320:1.341835 321:0.1347248 325:1.989619 326:2.290627 327:2.281689 328:0.7324344 344:1.463526 345:2.484492 346:2.261681 347:1.595404 348:0.08321619 351:0.07341848 352:0.703014 353:2.229561 354:2.275346 355:1.159558 371:0.2335574 372:2.592976 373:2.429943 374:1.605673 378:0.330978 379:1.764918 380:2.255796 381:2.292116 382:1.506281 383:0.09856584 399:0.3048462 400:2.742947 401:2.415198 402:0.2742041 403:0.2007869 404:1.098165 405:1.821708 406:2.158904 407:2.22399 408:2.2999 409:2.284922 410:0.6843703 427:0.2134392 428:2.500646 429:2.439622 430:2.339568 431:2.322303 432:2.327012 433:2.298818 434:2.005919 435:2.015808 436:2.305475 437:2.073881 456:0.6018012 457:2.334588 458:2.407454 459:2.043098 460:1.286819 461:0.3816525 462:0.2124584 463:1.703757 464:2.26569 465:1.273972 490:0.5585574 491:2.277412 492:2.264507 493:0.9806789 518:0.6499841 519:2.275982 520:2.269784 521:0.1903247 547:2.26814 548:2.267387 549:0.1897605 574:0.6366547 575:2.269158 576:2.265131 577:0.1886923 602:0.9605011 603:2.287653 604:2.270379 605:0.1896499 630:0.4012434 631:2.271341 632:2.27088 633:0.1953684 659:2.017656 660:2.442218 661:0.5933947 687:1.109362 688:3.187358 689:2.705519 690:0.7108814 715:0.2536938 716:3.655996 717:5.571419 718:4.386324 719:0.3485267 744:0.4787207 745:5.594828 746:11.33161 747:2.35416 
0.04361817351414474 152:0.4399214 153:0.447681 154:1.015828 155:2.374571 156:2.328142 157:2.342938 158:2.406902 159:2.560288 160:2.831961 161:2.271821 162:0.09717826 178:0.5328937 179:1.500091 180:2.201127 181:2.095188 182:2.268439 183:2.255271 184:2.242802 185:2.243918 186:2.246517 187:2.294737 188:2.432661 189:2.711588 190:2.029827 191:0.2271663 206:1.925135 207:2.471237 208:2.342534 209:2.289731 210:2.280811 211:2.290473 212:2.287839 213:2.286939 214:2.276749 215:2.27062 216:2.320168 217:2.497243 218:2.875792 219:0.8387789 234:1.085471 235:2.343886 236:2.278012 237:2.067858 238:1.184294 239:1.194644 240:1.190882 241:1.191973 242:1.701888 243:2.261905 244:2.286478 245:2.412757 246:2.731124 247:0.7904738 262:0.03816815 263:0.263078 264:0.2599096 265:0.2156034 270:0.1265426 271:2.031145 272:2.290613 273:2.41291 274:1.859169 275:0.09400237 298:0.7735913 299:2.198384 300:2.310002 301:2.462682 302:1.607225 325:0.8143557 326:1.71797 327:2.281689 328:2.336373 329:2.546972 330:0.164769 351:0.8351352 352:1.910756 353:2.247762 354:2.266353 355:2.265183 356:2.370504 357:2.147852 358:0.110663 374:0.2919405 375:1.135003 376:1.78188 377:1.815234 378:1.77441 379:2.221514 380:2.255796 381:2.292116 382:2.246051 383:2.132606 384:0.9743105 385:0.3010938 401:0.4312854 402:2.029111 403:2.299923 404:2.325527 405:2.330307 406:2.257443 407:2.22399 408:2.2999 409:2.294025 410:2.239757 411:1.592065 429:0.4356467 430:2.062149 431:2.331518 432:2.336246 433:2.307941 434:2.245565 435:2.264454 436:2.314624 437:2.271393 438:2.244472 439:2.302438 440:0.7103313 458:0.2949845 459:1.15807 460:0.4848883 461:0.3998264 462:0.3895071 463:0.3904444 464:0.3955966 465:1.273972 466:2.262717 467:2.321014 468:0.7100187 493:0.1349558 494:2.292048 495:2.323581 496:0.7061356 521:0.779425 522:2.284787 523:2.305051 524:0.7038262 539:0.06148988 540:0.8117754 541:0.09105112 548:0.8817617 549:2.186764 550:2.264105 551:2.304409 552:0.718318 566:0.9801238 567:2.252603 568:2.670402 569:0.2833398 574:0.1614054 575:0.8251484 576:2.148279 577:2.264307 578:2.274551 579:2.275516 580:0.6640417 594:3.709771 595:3.29669 596:2.719593 597:1.42444 598:1.230435 599:1.204293 600:1.201418 601:1.205844 602:1.83945 603:2.287653 604:2.270379 605:2.275798 606:1.744567 607:0.8301458 622:4.685689 623:3.903206 624:3.026952 625:2.576757 626:2.353511 627:2.257546 628:2.231444 629:2.23962 630:2.246963 631:2.253527 632:2.064436 633:1.423398 634:0.080472 650:1.657849 651:3.426547 652:3.91554 653:3.078887 654:2.639639 655:2.41379 656:2.310788 657:1.962906 658:1.87762 659:1.351274 660:0.4361103 679:0.2600334 680:2.545804 681:4.265868 682:3.63721 683:2.133801 684:1.173059 685:0.2639824 
1 124:0.6932023 125:1.687263 126:2.794629 127:1.970865 128:1.359691 129:1.376901 130:0.07393782 151:1.372035 152:2.801605 153:2.644441 154:2.457336 155:2.365259 156:2.337344 157:2.352199 158:0.6278875 179:0.1942563 180:2.279739 181:2.354769 182:2.286443 183:2.264186 184:2.260602 185:2.261727 186:2.121711 187:0.6374271 208:0.9667601 209:2.217041 210:2.298913 211:2.027928 212:2.305997 213:2.30509 214:2.294819 215:1.270466 237:1.861072 238:2.278868 239:1.88628 240:2.291546 241:2.293646 242:2.287194 243:0.3051777 265:0.7546121 266:1.871459 267:2.328509 268:2.336489 269:2.32367 270:2.295845 271:0.3684821 294:0.2307696 295:2.028522 296:2.415465 297:2.364746 298:2.311673 299:1.547011 321:0.8757112 322:1.369474 323:2.461356 324:2.38303 325:2.350527 326:2.308807 327:1.014084 347:0.3625919 348:1.978696 349:2.407345 350:2.46471 351:2.331037 352:2.289302 353:2.311463 354:2.28434 355:0.30562 375:0.7354817 376:2.280437 377:2.388961 378:2.335233 379:2.230295 380:2.273699 381:2.310308 382:2.263877 383:1.308238 404:1.015111 405:2.274823 406:2.275359 407:2.23278 408:2.318154 409:2.312231 410:2.257533 411:1.538097 433:0.6659276 434:0.7899417 435:0.7903387 436:0.8508302 437:2.154681 438:2.253344 439:1.556193 464:0.008990833 465:1.140339 466:2.280675 467:2.017072 468:0.2974403 492:0.06265434 493:2.285252 494:2.310239 495:1.9732 496:0.2671864 520:1.242977 521:2.302023 522:2.30292 523:1.061055 539:0.2336616 540:1.91579 541:0.9105112 547:0.2241245 548:2.159416 549:2.295199 550:2.282075 551:0.3109123 567:2.018727 568:2.691596 569:2.100623 570:0.5900033 571:0.3295073 573:0.4582238 574:0.7980602 575:1.847615 576:2.283108 577:2.282278 578:1.254614 579:0.07491411 595:0.7456798 596:2.126031 597:2.461278 598:2.332317 599:1.995172 600:1.613845 601:2.168719 602:2.301578 603:2.296695 604:2.279388 605:1.923591 606:0.1020757 624:1.68164 625:1.073649 626:2.37219 627:2.275463 628:2.249154 629:2.257394 630:2.264796 631:2.262434 632:2.118291 653:0.08552463 654:1.225547 655:1.120688 656:1.513016 657:2.297595 658:2.303939 659:2.212018 660:0.484567 
1 144:4.428994 145:12.79062 146:5.661639 147:5.534436 148:4.226552 149:4.993734 150:2.911933 151:2.064713 152:1.794416 153:1.613734 154:1.499555 155:1.219878 156:0.4785113 172:22.42381 173:17.68033 174:10.24783 175:6.813261 176:4.913831 177:3.822261 178:3.147791 179:2.741173 180:2.495921 181:2.354769 182:2.286443 183:2.264186 184:2.242802 185:1.869932 186:1.0876 187:0.3005013 200:21.44917 201:12.24528 202:7.625671 203:5.289538 204:3.678355 205:2.389594 206:2.044104 207:1.853428 208:1.756901 209:1.362935 210:1.710608 211:1.855917 212:2.305997 213:2.30509 214:2.294819 215:0.6757797 228:2.276127 229:2.759201 230:0.8719311 231:0.6266432 232:0.3447039 239:0.1167697 240:2.020891 241:2.293646 242:2.287194 243:1.3733 267:0.8250622 268:2.336489 269:2.32367 270:2.232574 271:0.4763305 293:0.05562331 294:1.461541 295:2.387638 296:2.415465 297:2.364746 298:0.4459526 320:0.6065828 321:1.520466 322:2.539025 323:2.471085 324:2.33612 325:0.9531664 326:0.07271832 347:0.4894991 348:2.320807 349:2.445862 350:2.46471 351:2.331037 352:2.235224 353:0.6734185 354:0.04496731 375:1.271203 376:2.345065 377:2.388961 378:2.335233 379:2.230295 380:2.273699 381:2.310308 382:1.800406 383:1.120066 384:0.4298429 403:0.5293473 404:1.670319 405:2.163856 406:2.275359 407:2.23278 408:2.318154 409:2.312231 410:2.257533 411:2.284659 412:2.417725 413:1.488348 414:0.2663676 433:0.2736689 434:0.4437875 435:0.6482554 436:1.41805 437:2.271393 438:2.253344 439:2.311538 440:2.438164 441:2.655305 442:2.251027 443:0.02821438 465:0.8107095 466:1.795807 467:2.339435 468:2.437091 469:2.615752 470:2.975195 471:1.676723 494:0.03638172 495:1.770348 496:2.423763 497:2.615773 498:3.011959 499:2.270302 523:1.289731 524:2.415836 525:2.654218 526:3.112756 527:1.798924 541:0.2529198 542:1.223845 543:0.8140264 550:0.02695364 551:1.719162 552:2.465578 553:2.768141 554:3.268078 555:1.034081 568:0.254324 569:2.042001 570:2.378744 571:0.1372947 577:0.206663 578:1.236562 579:2.378523 580:2.594871 581:3.025478 582:3.101702 596:1.813062 597:2.461278 598:2.332317 599:0.4313886 600:0.08069227 603:0.08137894 604:1.144199 605:2.176458 606:2.357021 607:2.540446 608:2.922798 609:3.391593 610:1.154936 624:1.213183 625:2.597207 626:2.37219 627:2.275463 628:1.815262 629:1.688602 630:1.694139 631:1.82598 632:2.279855 633:2.363027 634:2.554986 635:2.930414 636:3.39493 637:1.212263 652:0.5127493 653:2.028155 654:2.660588 655:2.432947 656:2.329128 657:2.297595 658:2.303939 659:2.350847 660:2.4616 661:2.691469 662:3.050746 663:2.054003 664:1.048785 681:0.1270684 682:1.270137 683:1.910496 684:1.321115 685:2.133858 686:2.142327 687:1.779601 688:1.94783 689:1.259712 690:0.8293616 
0.8009646350174848 73:1.425392 74:8.754664 75:9.839724 100:2.908123 101:4.703086 102:5.348205 103:4.143579 126:0.2934999 127:2.338918 128:2.915271 129:2.940501 130:2.563178 131:0.2582101 153:0.3956251 154:1.72207 155:2.346635 156:2.328142 157:1.083493 158:0.6183741 181:0.5284324 182:2.268439 183:2.246357 184:2.251702 185:0.792495 208:0.3532393 209:2.017144 210:2.289862 211:2.290473 212:0.7172195 236:1.184205 237:2.265653 238:1.605974 239:0.2425218 263:1.796187 264:2.20475 265:1.976365 266:0.3361359 290:0.740024 291:2.286719 292:2.274722 293:1.251524 294:0.2692312 317:0.1612921 318:1.294986 319:2.29236 320:2.316044 321:1.135538 326:1.008967 327:1.267605 328:1.297985 345:0.1276616 346:1.748911 347:2.311524 348:2.339299 349:0.5392452 352:1.027482 353:1.028328 354:1.996549 355:2.274172 356:2.37991 357:2.684815 358:0.331989 373:0.73284 374:2.299032 375:2.297245 376:2.058856 377:0.3479982 379:0.421473 380:1.557573 381:2.292116 382:2.246051 383:2.168448 384:2.044142 385:2.720598 386:2.465391 387:0.4586143 400:0.1415012 401:1.044669 402:2.303315 403:2.080883 404:1.199676 406:0.340408 407:1.450428 408:2.309027 409:2.121063 410:1.45762 411:0.4407413 412:0.6044311 413:2.689657 414:2.59103 415:0.4464173 428:0.7902475 429:2.439622 430:2.330321 431:1.161151 433:0.2098128 434:1.579883 435:2.237813 436:2.195691 437:1.32872 438:0.06210002 439:0.400424 440:2.0638 441:2.508949 442:1.744251 456:1.302079 457:2.503473 458:2.397938 461:1.790132 462:2.230814 463:2.236181 464:0.5664225 466:0.511805 467:2.321014 468:2.417902 469:1.441753 484:1.50176 485:2.595691 486:1.712735 488:0.4552243 489:2.108651 490:2.279274 491:1.000275 493:0.3418881 494:2.019185 495:2.332802 496:1.068746 512:1.497472 513:2.613837 514:1.725476 516:0.4574727 517:2.130689 518:2.306986 519:1.421364 520:2.0356 521:2.120761 522:1.822389 523:0.2469697 524:0.114134 540:0.6169493 541:2.549431 542:2.447689 543:0.5395291 544:0.9688269 545:2.208954 546:2.283372 547:2.259175 548:2.276385 549:2.105438 550:0.6648564 568:0.5404385 569:2.364422 570:2.360013 571:2.315704 572:2.279849 573:2.264165 574:2.259676 575:2.260189 576:2.157267 577:1.329831 597:0.7267553 598:1.735464 599:2.273777 600:2.259384 601:2.267707 602:1.422629 603:1.012716 604:0.5675947 
0.6239816620064117 160:0.1231287 161:2.650457 162:3.70897 163:0.6741273 184:0.2314002 185:0.4185086 186:0.4189933 187:0.273183 188:0.9170746 189:2.733108 190:2.762107 191:0.2109401 208:0.4183097 209:1.39928 210:1.674405 211:1.674852 212:2.024556 213:2.296015 214:2.285784 215:1.198383 216:1.611227 217:2.526972 218:2.145432 219:0.2701152 236:0.9943703 237:2.274644 238:2.269896 239:2.272519 240:2.219372 241:1.453846 242:2.053071 243:2.270881 244:2.295551 245:2.431906 246:0.9970771 263:1.161172 264:2.195788 265:2.27282 266:1.435391 267:1.255928 268:0.1931742 270:0.4338605 271:2.094057 272:2.299702 273:2.230984 274:0.08647298 291:1.25634 292:2.292775 293:2.067333 294:0.240385 297:0.3351609 298:1.547183 299:2.2979 300:2.236669 301:1.03589 319:0.4983391 320:1.948418 321:2.434669 322:1.609382 323:0.1070155 324:0.2439323 325:1.64722 326:2.299717 327:2.13682 328:1.047659 347:0.06345359 348:1.433168 349:2.436233 350:2.212417 351:0.7341848 352:2.009899 353:2.302363 354:2.275346 355:0.9797817 376:1.301788 377:2.379555 378:2.32604 379:2.221514 380:2.273699 381:2.301212 382:1.372587 383:0.2598554 404:1.015111 405:2.339554 406:2.266401 407:2.22399 408:2.318154 409:1.629486 410:0.3377412 431:0.02764646 432:1.579044 433:2.317063 434:2.25444 435:2.255573 436:1.637619 459:1.609999 460:2.359168 461:2.299002 462:2.239666 463:2.245055 464:1.600368 485:0.2667509 486:1.210726 487:2.457878 488:2.399411 489:1.869241 490:1.405402 491:2.259549 492:1.790124 513:0.9646304 514:2.523384 515:2.468308 516:1.153212 517:0.1220219 518:0.8513876 519:2.275982 520:1.423119 540:0.692715 541:2.417913 542:2.457402 543:0.7193721 544:0.07452515 545:0.2945272 546:1.984359 547:2.26814 548:1.133694 568:1.409379 569:2.481666 570:1.78874 572:0.0452351 573:0.9703563 574:2.098271 575:2.278127 576:0.9527931 596:1.424549 597:2.451588 598:1.744646 599:0.04493631 600:0.7620937 601:2.276705 602:2.138474 603:1.392484 624:1.837792 625:2.586982 626:1.578347 627:1.720035 628:2.240299 629:2.248507 630:0.6865721 652:1.74024 653:3.091104 654:2.650114 655:2.432947 656:2.164072 657:1.166889 658:0.08163564 680:0.4201813 681:2.14201 682:3.50731 683:2.369512 684:1.286948 
1 101:0.6833544 102:3.586693 103:5.885766 104:1.105417 128:0.6683229 129:2.823815 130:2.723376 131:1.94337 132:0.2661346 155:0.6984033 156:2.272929 157:1.32427 158:0.09513447 182:0.3330645 183:2.183959 184:1.637601 185:0.01780888 209:0.07268987 210:1.737761 211:1.81065 212:0.1271022 237:1.249705 238:2.216064 239:0.2515041 264:0.06273679 265:2.075183 266:1.66251 292:1.128334 293:2.252744 294:0.48077 320:1.792177 321:1.770669 347:0.5529527 348:2.320807 349:0.3948046 353:0.582416 354:0.3867189 375:1.380163 376:1.938833 377:0.0658375 379:0.842946 380:2.121522 381:2.310308 382:2.201487 383:0.9587768 403:2.28167 404:0.7751755 406:0.05374864 407:1.960276 408:0.7666335 409:0.1183426 410:0.7732496 411:2.212701 412:0.6907784 430:0.3976341 431:2.340734 432:0.7387341 434:0.497042 435:1.340912 439:1.33778 440:1.852621 458:0.6375471 459:2.391461 460:0.3823158 462:0.1150817 463:0.168601 467:0.3868356 468:2.427496 486:0.6595013 487:2.457878 488:0.1232899 495:0.1290878 496:2.41422 514:0.6782219 515:2.478025 516:0.1238989 523:0.7043211 524:2.28268 542:0.6507745 543:2.404217 544:0.1211034 550:0.04492273 551:1.655151 552:1.426929 570:0.2341283 571:2.096032 572:0.9499372 577:0.04492673 578:1.408056 579:1.994588 580:0.2043205 599:0.9616371 600:2.205589 601:0.9448777 602:0.1268586 603:0.4430631 604:0.8558968 605:1.959715 606:1.939439 607:0.2700474 628:0.9474783 629:2.186295 630:2.25588 631:2.253527 632:2.154194 633:1.209423 634:0.060354 
-1 214:0.289111 215:1.162341 216:2.329375 217:1.902661 218:0.1711781 238:0.1884103 239:0.8443351 240:1.957738 241:1.968562 242:2.044067 243:2.261905 244:2.286478 245:2.422331 246:1.723209 263:0.05442992 264:0.3316088 265:1.634993 266:1.826036 267:2.310174 268:2.318091 269:2.314522 270:2.277767 271:2.264817 272:2.290613 273:2.422485 274:0.8214933 290:0.009367393 291:1.08461 292:2.274722 293:2.345449 294:2.423081 295:2.445873 296:2.396446 297:2.355436 298:2.293471 299:2.279806 300:2.310002 301:2.472455 302:0.390645 316:0.7626043 317:1.098802 318:2.145977 319:2.283299 320:2.316044 321:2.434669 322:2.519033 323:1.69279 324:1.341627 325:0.43494 326:2.108831 327:2.281689 328:2.336373 329:1.455412 343:1.129581 344:2.752823 345:2.474672 346:2.307464 347:2.284329 348:1.941711 349:1.733288 350:1.339095 351:0.09177309 353:2.120358 354:2.266353 355:2.265183 356:1.97542 357:0.2105738 371:1.051008 372:2.637682 373:2.073166 374:0.8302059 375:0.6446815 376:0.2862087 380:0.187983 381:2.301212 382:2.246051 383:2.204291 384:0.8787898 400:0.674852 407:0.1845999 408:1.880077 409:2.303128 410:1.866465 411:0.8275142 435:1.616198 436:2.314624 437:1.86739 438:0.1774286 462:0.9295057 463:2.147444 464:2.26569 465:0.1781779 489:0.7274386 490:2.180176 491:2.250618 492:2.067593 517:1.792783 518:2.306986 519:2.078071 520:0.4143257 543:0.1514468 544:1.779288 545:2.347014 546:2.011542 547:0.3675642 571:0.7139324 572:2.279849 573:2.27315 574:1.237442 598:1.432446 599:2.085045 600:2.259384 601:1.574796 602:0.09061331 625:0.6441892 626:2.213421 627:2.257546 628:2.231444 629:0.5510175 652:0.01553786 653:3.091104 654:2.650114 655:2.078541 680:3.089568 681:4.574463 682:3.334109 683:0.8808132 707:1.689264 708:9.006526 709:7.274483 710:1.739054 735:3.709511 736:16.78846 737:8.953405 738:0.5782191 
-1 95:0.2955652 96:2.35198 97:4.04864 98:4.772741 99:3.435302 100:0.8506755 101:0.2210852 122:2.911062 123:3.116405 124:4.159214 125:3.603308 126:3.215738 127:2.991916 128:2.915271 129:2.392075 130:0.6284715 150:3.375923 151:3.370145 152:2.917374 153:2.623619 154:2.437987 155:2.346635 156:2.328142 157:2.333678 158:2.140526 159:0.07083802 178:2.614897 179:2.730381 180:2.476268 181:2.336227 182:2.268439 183:2.246357 184:2.020302 185:2.243918 186:2.246517 187:1.784796 188:0.2702957 206:2.282042 207:2.481043 208:2.342534 209:2.289731 210:2.045489 211:0.5341419 212:0.3813066 213:1.651679 214:2.276749 215:2.27062 216:1.187705 234:2.111192 235:2.362489 236:2.00682 237:0.9530128 241:0.3250836 242:2.017053 243:2.270881 244:2.295551 245:0.5936148 262:0.505728 263:0.5715142 264:0.1433984 270:0.4338605 271:2.264817 272:2.290613 273:1.350081 298:0.1001118 299:1.899838 300:2.310002 301:2.101098 302:0.06696772 327:0.8963778 328:2.336373 329:2.557079 330:0.7414606 355:0.09887705 356:2.050674 357:2.663758 358:0.774641 384:2.025037 385:2.742104 386:0.7805008 403:0.1369002 404:0.7844038 405:0.7860162 406:0.761439 407:0.7471902 408:0.7757601 409:0.5188866 412:2.024365 413:2.689657 414:1.295515 428:0.02165062 429:0.8906555 430:1.174408 431:1.769374 432:2.327012 433:2.298818 434:2.236689 435:2.237813 436:2.314624 437:2.208548 438:2.058172 439:2.111326 440:2.390169 441:2.644851 442:0.7424853 456:1.006649 457:2.503473 458:2.397938 459:2.382046 460:2.349843 461:2.289915 462:2.230814 463:2.236181 464:2.274681 465:2.245042 466:2.262717 467:2.321014 468:2.417902 469:2.605454 470:1.557878 484:2.391692 485:2.585431 486:2.480512 487:2.448202 488:2.389928 489:2.320437 490:2.270265 491:2.250618 492:2.264507 493:2.267258 494:2.292048 495:2.323581 496:2.404678 497:2.605474 498:2.407195 499:0.13268 511:1.072525 512:2.806373 513:2.62421 514:2.523384 515:1.885243 516:1.010252 517:0.4974737 520:0.558439 521:1.08757 522:1.414392 523:2.314198 524:2.406325 525:2.664668 526:3.100501 527:2.915498 539:1.045328 540:2.727565 541:2.549431 542:2.447689 543:1.22104 544:0.5309917 545:0.6534823 547:0.6365136 548:1.313645 549:1.906642 550:2.264105 551:2.304409 552:2.446164 553:1.743711 554:3.019704 555:3.915945 567:1.046291 568:2.670402 569:2.462125 570:2.360013 571:2.315704 572:2.225567 573:2.23721 574:2.080337 575:2.233282 576:2.274119 577:2.264307 578:2.274551 579:2.359794 580:2.49271 581:0.6313006 582:0.7568747 583:1.433163 595:0.8372545 596:2.665633 597:2.441898 598:2.313952 599:2.273777 600:2.259384 601:2.267707 602:2.283455 603:2.27861 604:2.279388 605:2.275798 606:2.338462 607:2.360415 608:0.7564888 624:0.6726559 625:2.576757 626:2.353511 627:2.266505 628:2.231444 629:2.23962 630:2.246963 631:2.244619 632:2.27088 633:2.344421 634:2.363865 635:0.357649 
-0.6798946388307388 200:2.047421 201:10.31689 202:7.595649 203:3.165393 204:2.379191 205:1.92179 206:1.643936 207:1.490587 208:1.412957 209:1.381107 210:1.375727 211:2.299526 212:2.296918 213:2.30509 214:1.553972 215:1.36958 216:0.653698 228:3.966964 229:7.942024 230:6.277904 231:4.529735 232:3.474616 233:2.866533 234:2.50953 235:2.353188 236:2.278012 237:2.274644 238:2.260924 239:1.913227 240:2.273503 241:2.284615 242:2.269184 243:2.270881 244:2.286478 245:0.7851034 258:0.9490489 259:1.697227 260:1.310254 261:1.086849 262:0.9732879 263:0.7438756 271:0.4673431 272:2.299702 273:0.9766541 299:1.194184 300:2.310002 301:0.9968001 327:2.308852 328:2.345644 329:1.030917 354:0.368732 355:2.274172 356:2.370504 357:0.2105738 382:1.452803 383:2.275975 384:1.25132 409:0.3732342 410:2.159766 411:2.275664 412:0.4797072 437:1.014496 438:2.244472 439:2.038522 440:0.1919814 464:0.3686241 465:2.075773 466:2.262717 467:0.7460402 492:1.100926 493:2.285252 494:2.119235 519:0.1889155 520:2.008579 521:2.29296 522:1.006394 547:1.362677 548:2.276385 549:2.024112 550:0.1796909 575:2.089778 576:2.265131 577:1.455626 602:0.9242558 603:2.296695 604:2.279388 605:0.3702688 630:1.631723 631:2.253527 632:1.534863 657:0.09950216 658:1.932043 659:2.350847 660:1.269565 685:0.5609626 686:2.782816 687:2.692514 688:0.3794473 689:0.5869115 713:0.8671376 714:4.329941 715:4.60273 716:4.232213 717:4.045912 741:0.8806339 742:6.669102 743:7.685962 744:7.249199 745:0.761201 
-1 190:2.980506 191:4.105219 192:5.546236 193:3.046774 208:0.02788731 209:0.781416 210:0.4163385 217:0.9017822 218:2.807321 219:3.582581 220:4.416941 221:1.601903 236:0.9310921 237:2.265653 238:1.677749 239:0.1167697 244:0.1996131 245:2.096801 246:2.731124 247:3.376261 248:3.211526 258:0.2314753 263:0.07257323 264:1.622194 265:2.263836 266:2.234849 267:0.2750207 272:0.5908326 273:2.41291 274:2.561762 275:2.645495 276:1.209633 286:2.017731 290:0.1217761 291:1.554608 292:2.274722 293:2.336179 294:1.000002 299:0.04523425 300:1.686668 301:2.462682 302:0.7478062 303:1.439508 317:0.08064603 318:1.590983 319:2.283299 320:2.279281 321:1.395364 322:0.1399463 327:0.986921 328:2.336373 329:1.849587 330:1.612383 331:0.9345085 344:0.05807643 345:2.199708 346:2.307464 347:2.24807 348:1.238997 354:0.4766535 355:2.13934 356:2.370504 357:2.579529 358:1.057446 371:0.1751681 372:1.944732 373:2.429943 374:2.03446 375:0.7990419 382:1.862797 383:2.258054 384:2.40712 385:1.92485 386:0.1115001 398:0.2295533 399:2.369487 400:2.742947 401:2.357693 402:0.5575484 409:0.7555717 410:2.14199 411:2.266669 412:2.024365 413:0.1488348 426:2.488091 427:3.361668 428:2.727978 429:2.410578 430:2.034407 431:2.027407 432:1.985348 433:1.012575 434:1.704144 435:1.953646 436:2.021865 437:2.181615 438:2.235601 439:2.293337 440:1.430262 454:2.602127 455:3.295269 456:2.768285 457:2.513407 458:2.407454 459:2.382046 460:2.359168 461:2.299002 462:2.239666 463:2.245055 464:2.292662 465:2.25395 466:2.029262 467:1.409187 482:0.7490426 483:0.9917334 484:0.8565596 485:0.7899929 486:0.7579344 487:0.7451048 488:0.7302557 489:0.7090225 490:0.6936922 491:1.366447 492:2.264507 493:2.114308 494:0.2910537 518:0.6774482 519:1.925139 520:2.161699 521:1.033191 545:0.2208954 546:2.002481 547:2.17849 548:0.5128614 572:0.07237616 573:1.617261 574:2.259676 575:1.067312 600:1.21935 601:2.267707 602:1.386384 603:0.06329473 626:0.02801799 627:1.218358 628:2.222589 629:2.008548 630:0.3031617 654:1.288395 655:2.41379 656:2.25577 657:0.3527804 682:2.381506 683:3.126267 684:1.446393 710:3.775577 711:3.392099 712:0.05308965 
-0.6224646561055164 239:1.086857 240:1.091642 241:2.167224 242:2.278189 243:1.956727 244:1.097872 245:1.158506 246:0.476863 263:0.1542181 264:0.9589767 265:1.65296 266:2.180341 267:2.319341 268:2.318091 269:2.305374 270:2.277767 271:2.264817 272:2.290613 273:2.41291 274:2.367198 289:0.7757091 290:1.142822 291:2.078836 292:2.274722 293:2.336179 294:2.423081 295:2.455579 296:2.396446 297:2.346126 298:2.293471 299:2.279806 300:2.310002 301:2.462682 302:2.667548 303:0.782645 314:1.83209 315:2.075754 316:2.578329 317:2.459704 318:2.330975 319:2.283299 320:2.316044 321:2.425046 322:2.519033 323:2.461356 324:2.364266 325:2.332019 326:1.899766 327:2.281689 328:2.336373 329:2.546972 330:2.648073 342:5.691912 343:3.899377 344:2.927052 345:2.474672 346:2.307464 347:2.284329 348:2.330053 349:2.051058 350:1.795163 351:0.4863974 352:0.477689 353:0.4823132 354:0.8004182 355:2.265183 356:2.370504 357:2.653229 358:1.475507 370:5.40054 371:3.386582 372:2.21297 373:0.8967648 374:1.496195 375:0.9806423 376:0.6093476 377:0.26335 382:0.7219451 383:2.258054 384:2.40712 385:2.387244 386:0.2973336 398:1.586005 399:0.6928324 410:1.519835 411:2.266669 412:2.331377 413:1.148154 437:1.292809 438:2.111401 439:2.293337 440:1.103893 463:0.06211615 464:0.6293583 465:2.147044 466:2.226801 467:1.22498 468:0.2686557 491:1.080654 492:2.255556 493:2.267258 494:1.564414 518:0.5859012 519:2.293974 520:2.278791 521:1.894184 522:0.1903989 545:0.1196517 546:2.229006 547:2.26814 548:1.862497 549:0.1897605 572:0.09047021 573:1.545382 574:2.259676 575:1.874522 576:0.8269525 599:0.1168344 600:1.506256 601:2.267707 602:2.283455 603:0.8318737 626:0.4015912 627:1.863371 628:2.231444 629:2.141858 630:0.4725756 653:0.1832671 654:1.73881 655:2.41379 656:1.870638 657:0.5608303 680:0.3213151 681:3.013337 682:3.50731 683:2.369512 684:0.3302787 707:0.6256535 708:6.84659 709:6.668276 710:4.050165 734:1.177199 735:17.24421 736:16.05563 737:2.368626 762:111.0743 763:83.84836 764:4.906537 
-1 159:1.983464 160:1.108159 178:0.06196438 179:0.5288089 186:0.3031015 187:2.221889 188:0.9460349 206:0.9625677 207:1.323877 214:0.3613887 215:2.27963 216:0.9022874 234:1.702895 235:1.39517 242:0.360188 243:2.270881 244:0.8891858 262:2.423678 263:2.113695 270:0.6959845 271:2.273804 272:0.8907938 290:2.388685 291:1.229225 298:0.7007827 299:2.2979 300:0.9075008 318:2.349475 319:1.223196 326:1.118044 327:2.290743 328:0.9085896 346:2.325777 347:1.223748 354:1.223111 355:2.274172 356:0.9218625 373:0.1542821 374:2.317278 375:1.225803 382:1.212155 383:2.123646 384:0.07641651 401:0.9392437 402:2.321595 403:1.232102 406:0.340408 407:0.8702569 408:0.8944057 409:0.8921208 410:1.946456 411:1.394182 429:1.897483 430:2.358063 431:1.916821 432:1.717557 433:2.317063 434:2.25444 435:2.264454 436:2.323773 437:2.280371 438:2.253344 439:2.311538 457:1.043114 458:2.416969 459:2.382046 460:2.228621 461:1.635653 462:1.195079 463:0.3460757 464:0.3506425 465:0.3474469 466:2.128031 467:1.565763 486:1.348533 487:0.8902551 488:0.2276122 494:2.12833 495:1.429187 521:0.1178201 522:2.148787 523:1.417789 549:0.7138611 550:2.27309 551:1.417394 577:0.2785457 578:2.184291 579:1.451461 605:0.5508877 606:2.301344 607:1.550272 634:2.353806 635:1.788245 662:2.855498 663:2.307032 690:3.317447 691:3.277796 
-1 210:0.06335586 211:0.6065679 212:1.280101 213:1.860407 214:2.303853 215:2.297651 216:1.408673 235:0.4185511 236:0.5152646 237:1.087873 238:1.686721 239:2.272519 240:2.282525 241:2.293646 242:2.278189 243:2.270881 244:2.295551 261:1.182747 262:1.889324 263:2.186269 264:2.267487 265:2.281803 266:2.298443 267:2.319341 268:1.977736 269:1.637547 270:2.286806 271:2.273804 272:1.499806 289:2.502955 290:2.36995 291:2.286719 292:2.283748 293:1.770675 294:1.115386 295:0.2717637 296:0.1521553 297:0.7354919 298:2.302572 299:2.288853 300:0.366667 317:0.6451683 318:1.054489 319:1.032921 320:0.1194784 325:1.314074 326:2.308807 327:1.874244 328:0.1205272 352:0.234338 353:1.974754 354:2.275346 355:1.285402 380:1.351687 381:2.310308 382:2.085619 383:0.3315396 408:2.062609 409:2.312231 410:1.750922 435:0.4262501 436:2.213988 437:2.262415 438:0.6653574 463:1.419798 464:2.274681 465:1.790688 490:0.4054045 491:2.152377 492:2.264507 493:1.025664 518:0.5218182 519:2.275982 520:2.278791 521:1.033191 545:0.0368159 546:1.63098 547:2.277105 548:2.177411 573:0.4851782 574:2.268643 575:2.269158 576:1.042679 601:1.268836 602:2.292517 603:2.287653 604:0.2522643 629:1.253121 630:2.25588 631:1.576578 632:0.02692743 657:1.854358 658:2.303939 659:0.5182971 684:0.296112 685:2.793814 686:2.793859 687:0.9360241 712:0.4424137 713:4.318685 714:4.329941 715:4.258432 716:0.4371299 741:5.795139 742:6.554118 743:3.129068 744:0.102583 
