svm_type c_svc
kernel_type rbf
gamma 0.00128866
nr_class 10
total_sv 16
rho -0.0546804 0.100754 -0.820508 0.238222 0.502626 0.549038 0.295063 0.566161 -0.0845966 0.123758 -0.526117 0.256175 0.519388 0.467517 0.321939 0.597701 0.0836076 -0.662993 0.227337 0.365882 0.41822 0.19948 0.543169 -0.06542 0.769227 0.997664 0.905272 0.749907 0.912511 0.61201 0.271857 0.300662 0.0420911 0.562182 -0.229817 0.0114792 -0.239248 0.166527 -0.519238 -0.234338 0.163402 -0.515638 0.358491 -0.227969 -0.593308
label 5 0 4 1 9 2 3 6 7 8
nr_sv 86 61 85 61 85 85 82 65 91 69
SV
0.5075301664398089 0.4267514474498343 0.3576796530280757 0.7626527992916814 1 1 0.53445982502435 1 0.6539719001494831 153:0.03123356 154:0.1741419 155:0.1676168 156:0.1656385 157:1.166839 158:1.293829 159:1.77095 160:0.2910316 161:2.167369 162:4.130076 163:5.20342 164:3.657639 177:0.4514481 178:0.4461436 179:1.01445 180:1.513275 181:1.576026 182:2.277441 183:2.255271 184:2.251702 185:2.252823 186:2.255432 187:2.048873 188:1.660388 189:2.722348 190:3.108976 191:3.164101 192:1.403 204:0.7669761 205:3.009119 206:2.736288 207:2.481043 208:2.35183 209:2.298817 210:2.289862 211:2.290473 212:2.296918 213:2.296015 214:2.267714 215:0.8379669 216:0.7549752 217:0.812595 218:0.6390649 219:0.5544471 232:0.2481868 233:2.481307 234:2.519488 235:2.353188 236:2.287052 237:2.274644 238:2.269896 239:1.778493 240:1.641974 241:2.230435 242:2.170132 261:0.8524305 262:1.488558 263:0.970667 264:2.267487 265:2.27282 266:1.862375 267:0.1008409 269:0.3933773 270:1.391969 290:0.1311435 291:0.009038416 292:1.390108 293:2.345449 294:0.8653861 320:1.2775 321:2.434669 322:1.899271 323:0.01945736 348:0.1017087 349:1.829582 350:2.455007 351:0.6424117 377:0.3291875 378:2.215714 379:1.975655 380:1.432251 381:0.9823355 382:0.008912903 406:0.7256066 407:2.109714 408:2.309027 409:2.303128 410:1.057663 411:0.224868 435:0.3996095 436:1.70166 437:2.271393 438:2.244472 439:1.365082 440:0.2591749 464:0.1438533 465:0.8285272 466:2.262717 467:2.330224 468:1.794236 494:2.264762 495:2.332802 496:2.376051 497:0.6590923 519:0.413815 520:1.17092 521:1.658544 522:2.293853 523:2.314198 524:1.968811 525:0.02089936 545:0.3589551 546:1.341028 547:2.05298 548:2.276385 549:2.286163 550:2.27309 551:2.28612 552:1.766674 571:0.2196715 572:1.03136 573:1.985637 574:2.268643 575:2.269158 576:2.274119 577:2.273293 578:1.814225 579:0.7304126 597:0.2228716 598:0.6060351 599:1.914287 600:2.268349 601:2.276705 602:2.292517 603:2.287653 604:1.783869 605:0.7315066 606:0.01855922 623:0.2788004 624:2.054003 625:2.239324 626:2.362851 627:2.266505 628:2.240299 629:2.248507 630:1.738722 631:0.7125776 632:0.08078228 649:3.216769 650:5.819389 651:4.932482 652:3.931078 653:3.091104 654:2.650114 655:2.423368 656:2.23743 657:1.203072 658:0.09977689 677:14.66935 678:15.18032 679:9.398349 680:6.253286 681:3.848358 682:1.948505 683:1.637568 684:0.1822228 
0.09722841767376858 0.5500637534443217 0.7553876022690539 0.163747028616337 0.9425128554072337 0.06920821543905577 0.2083327116704806 0.6470712875550836 0.8169264521644009 217:0.3072005 218:0.456475 219:1.83394 220:4.455018 221:6.576234 222:7.469411 243:0.6103553 244:1.360999 245:2.288289 246:2.7528 247:3.389659 248:4.642948 249:6.976249 250:9.871994 269:1.427136 270:1.816791 271:2.282791 272:2.308792 273:2.43206 274:2.604998 275:2.014337 276:1.852251 277:0.2432739 295:0.1844111 296:1.464495 297:2.364746 298:2.147853 299:1.83651 300:0.760834 301:0.3811294 302:0.3348386 323:1.40093 324:2.373648 325:1.341836 326:0.1090775 348:0.09246243 349:1.24219 350:2.154196 351:0.7158301 352:0.712027 353:0.072802 376:1.23716 377:2.379555 378:1.53537 379:0.0702455 404:2.353211 405:2.348801 406:0.6987323 432:1.856069 433:2.307941 434:2.005919 435:0.6127345 457:0.5463928 458:0.05709377 460:0.1678459 461:1.163131 462:2.239666 463:2.13857 464:0.3686241 483:0.3219914 484:2.280451 485:2.411017 486:0.9055839 489:0.1841617 490:2.279274 491:2.259549 492:0.519136 511:2.914745 512:2.717634 513:1.120216 517:1.238991 518:2.31614 519:1.664256 520:0.1260991 539:1.488055 540:2.6518 541:2.569665 542:2.467115 543:2.404217 544:2.021495 545:2.33781 546:2.020603 547:0.448249 568:1.229233 569:1.612106 570:2.182076 571:2.132644 572:2.117003 573:1.617261 574:0.3497118 575:0.02690701 
0 0.03602154931288772 0.5885539750059763 0.1172729455621262 0.2258531753272843 0.5135371400979702 0 0 0.06732411908380349 189:0.3120478 190:1.811428 191:3.21278 192:5.59008 193:6.350118 214:0.7769858 215:1.270466 216:1.822989 217:2.526972 218:2.910028 219:3.625231 220:4.854827 221:4.777606 239:0.2604863 240:1.272079 241:2.040803 242:2.296198 243:2.288833 244:2.313698 245:2.44148 246:2.145883 247:1.152216 267:1.558451 268:2.345687 269:2.332819 270:1.536589 271:0.7729136 272:0.781717 294:1.355771 295:2.193521 296:1.61665 297:0.5306714 321:0.8275952 322:2.549021 323:1.926279 324:0.2720783 349:1.906617 350:2.474414 351:1.294001 352:0.775118 353:0.5187142 376:1.569532 377:2.398366 378:1.820379 379:1.000998 380:2.023055 381:1.546269 382:0.2584742 402:0.5209879 403:1.807082 404:2.353211 405:1.054186 406:0.2597851 408:1.286849 409:2.321335 410:0.2577499 430:1.054193 431:2.349949 432:1.052696 436:1.289968 437:2.289349 438:0.2572715 459:0.2730408 464:2.031928 465:2.271768 466:0.260392 491:1.018137 492:2.282408 493:1.268585 510:1.389633 518:1.043636 519:2.033091 520:2.0356 521:0.2628293 538:3.986378 539:2.434999 540:0.9308358 544:1.313506 545:2.347014 546:2.310555 547:1.524047 548:0.2609295 566:3.631278 567:3.138874 568:2.394884 569:1.660957 570:2.11652 571:2.33401 572:2.30699 573:1.778987 574:0.2600421 594:1.533848 595:2.590256 596:2.751969 597:2.470968 598:1.560999 599:1.267204 600:0.5110511 
0.1038205410237651 0.2992855923788878 0 0 0.2129859812275192 0.3692092060485312 0 0 0.3100288091292096 187:1.165581 188:1.235637 189:2.743868 190:3.275987 191:4.137671 192:5.59008 193:8.178182 194:3.605393 213:1.16162 214:2.303853 215:2.297651 216:2.347789 217:2.526972 218:2.910028 219:3.625231 220:4.854827 221:7.166409 222:11.97924 240:0.5773975 241:2.302676 242:2.296198 243:2.288833 244:2.313698 245:2.44148 246:2.763638 247:3.416455 248:3.505151 249:3.529486 250:5.87728 268:2.345687 269:2.332819 270:1.726403 271:1.150383 272:1.163486 273:0.6128025 292:0.5777071 293:1.186631 296:0.6086212 319:1.730596 320:2.343616 321:2.453916 346:0.5860226 347:2.311524 348:2.357792 349:1.232561 374:2.326401 375:2.315405 376:1.763415 402:2.330735 403:2.327303 404:2.353211 405:1.766225 406:1.146638 407:0.5625903 430:1.183655 431:2.349949 432:2.354715 433:2.326185 434:2.263316 435:2.264454 436:1.171035 460:1.193571 461:1.163131 462:2.257371 463:2.262803 464:2.292662 465:0.5701693 490:0.5765754 491:1.705826 492:2.282408 493:2.294249 519:1.151485 520:2.296805 521:1.731048 546:0.579904 547:1.712311 548:2.29438 549:1.725917 568:1.356395 569:1.866135 570:0.5993684 573:0.575026 574:2.286577 575:2.287096 576:2.292097 577:1.150124 595:1.674509 596:2.751969 597:2.470968 598:2.341499 599:2.291752 600:2.286281 601:2.294703 602:2.310639 603:2.305737 604:1.720803 623:3.949673 624:3.062987 625:2.607432 626:2.381529 627:2.284422 628:2.258009 629:2.266282 630:2.273713 631:1.140124 651:2.793618 652:3.962154 653:3.11554 654:1.340769 655:1.829499 656:1.173734 
0 0 0 0 0.03465503374522763 0.3107411573310539 0 0 0.5721780195936323 220:0.1142312 221:1.039832 222:1.738165 244:0.0725866 245:0.488296 246:1.192157 247:2.143658 248:3.798776 249:6.976249 250:11.61681 270:0.4790543 271:1.222282 272:1.927023 273:2.422485 274:2.745517 275:3.397514 276:4.781832 277:7.693537 278:10.32102 294:0.6057702 295:0.7764676 296:1.854393 297:2.374056 298:2.311673 299:2.2979 300:2.035002 301:1.768831 302:2.031354 303:2.52962 304:2.7122 305:1.802067 320:0.1470504 321:2.145973 322:2.49904 323:2.461356 324:2.373648 325:2.350527 326:1.654342 327:0.1629778 328:0.09271322 346:0.02746981 347:1.205618 348:2.108143 349:2.436233 350:2.396785 351:1.982299 352:1.360963 353:0.6279172 354:0.1438954 374:0.5291422 375:2.297245 376:2.345065 377:2.379555 378:1.066485 379:0.03512275 402:0.3473253 403:2.071756 404:2.343983 405:2.339554 406:2.03349 407:0.7647712 431:0.3041111 432:1.68062 433:2.271452 434:2.25444 435:1.802683 461:0.6088266 462:2.239666 463:1.907853 489:0.6261497 490:2.279274 491:1.402171 511:1.703423 512:1.020499 517:1.727079 518:2.31614 519:1.124497 539:3.123686 540:2.35956 541:0.4653724 544:0.2515224 545:2.227362 546:2.292433 547:0.4841089 567:2.092582 568:2.691596 569:2.481666 570:2.013503 571:2.086879 572:2.30699 573:2.282134 574:1.192607 595:0.4055451 596:1.726726 597:1.996155 598:2.323134 599:1.923274 600:1.255213 601:0.9718742 602:0.1449813 625:0.06135135 626:0.3362159 627:0.09854368 
0.2308062518313508 1 1 1 0.9477179449462872 0 1 1 1 182:0.01800348 183:0.1604541 184:0.4094004 185:1.211004 186:1.212406 187:2.221889 188:2.461621 189:2.593225 190:1.323242 208:0.1394366 209:0.8541059 210:1.475286 211:2.290473 212:2.296918 213:2.296015 214:2.285784 215:2.144474 216:2.007129 217:2.021578 218:0.3994156 236:1.184205 237:2.274644 238:2.269896 239:2.272519 240:2.282525 241:2.140134 242:1.80094 243:0.5116214 263:1.406106 264:2.20475 265:2.27282 266:2.243934 267:0.9900746 268:0.5979203 269:0.4116739 291:1.870952 292:2.283748 293:2.345449 294:2.211542 319:1.422532 320:2.325234 321:2.434669 322:1.24952 347:0.806767 348:2.339299 349:2.407345 350:0.5531043 375:0.8081219 376:2.335833 377:2.323123 403:0.8122744 404:2.334755 405:2.284071 431:0.8201784 432:2.336246 433:2.253207 459:0.1977192 460:2.154023 461:2.262654 462:0.3009828 488:2.133864 489:2.329645 490:2.081077 491:1.902308 492:1.906482 493:1.106638 494:0.1455269 516:1.639277 517:2.374733 518:2.31614 519:2.275982 520:2.278791 521:2.29296 522:1.722657 523:0.5762627 544:0.01863129 545:1.067661 546:0.652392 547:1.111657 548:1.880492 549:2.286163 550:2.27309 551:1.289371 576:0.2247154 577:1.967791 578:2.283577 579:1.929038 580:0.03064808 605:0.9392184 606:2.282784 607:2.530444 608:0.05730976 634:2.142567 635:2.918877 636:0.07014317 661:0.2755047 662:2.757874 663:3.765672 664:0.09534409 689:1.889569 690:4.282214 691:4.419737 692:0.08139188 717:1.724487 718:6.527882 719:2.724845 
0 1 1 1 1 1 1 1 1 126:1.352652 127:2.718844 128:2.926794 129:1.5636 152:0.1273457 153:1.540856 154:2.457336 155:2.355947 156:2.291333 157:1.203881 158:0.06659413 180:0.4421907 181:2.345498 182:2.286443 183:2.255271 184:2.207202 185:1.139768 186:0.08914751 208:0.4183097 209:2.298817 210:2.298913 211:2.290473 212:1.588777 213:0.6443361 236:0.2892713 237:1.600342 238:2.278868 239:2.272519 240:0.8029434 266:2.307527 267:2.319341 268:0.8186909 294:2.442312 295:2.455579 296:1.597631 322:2.539025 323:2.461356 324:2.279828 325:0.444194 350:1.348798 351:2.321859 352:2.280289 353:1.401438 354:0.05396078 378:0.3953348 379:1.993216 380:2.264747 381:2.301212 382:0.2584742 407:0.5362189 408:2.318154 409:2.312231 410:0.8088013 435:0.5328126 436:2.314624 437:2.271393 438:1.579115 463:0.5324242 464:2.274681 465:2.25395 466:1.598268 491:0.5358615 492:2.264507 493:2.276255 494:1.618986 519:1.736224 520:2.278791 521:2.29296 522:1.613857 546:1.078259 547:1.138552 548:2.276385 549:2.159656 550:0.6199336 574:2.27761 575:2.269158 576:2.274119 577:1.195051 598:0.4407528 599:1.285179 600:1.909717 601:1.601793 602:2.310639 603:2.287653 604:2.234341 605:0.7856923 625:0.3272072 626:1.232792 627:2.248588 628:2.240299 629:2.248507 630:2.264796 631:1.92396 632:0.9693873 652:0.6992036 653:1.429483 654:1.340769 655:2.365897 656:2.319958 657:1.483487 658:0.9524158 659:0.1665955 
1 0 0 0 0.6193959294406856 0 1 0 0.278602257023748 129:0.1983672 130:0.9735146 131:2.0385 132:3.992018 133:4.309496 134:0.7301493 154:0.08707095 155:0.3352336 156:1.242289 157:2.259593 158:2.406902 159:2.560288 160:2.831961 161:3.185771 162:0.728837 180:0.0491323 181:0.6767643 182:1.719333 183:2.255271 184:2.251702 185:2.252823 186:2.255432 187:2.249207 188:1.930683 189:1.011465 208:0.5298589 209:2.298817 210:2.289862 211:2.290473 212:2.296918 213:2.014685 214:1.599145 215:0.5135926 235:0.9487159 236:2.106257 237:2.274644 238:2.269896 239:2.029997 240:1.091642 241:0.2347826 263:1.133957 264:2.267487 265:2.27282 266:1.317289 267:0.1833471 291:0.08134575 292:1.769228 293:2.345449 294:2.413466 295:2.00911 296:0.7702862 297:0.009310025 320:0.2021943 321:2.242205 322:2.529029 323:2.461356 324:2.373648 325:0.9254042 326:0.1090775 349:0.1540701 350:1.707831 351:2.239263 352:2.280289 353:2.302363 354:1.295059 355:0.1617988 379:0.9922177 380:2.264747 381:2.301212 382:2.254964 383:1.747304 384:0.2005933 407:0.1582285 408:0.5384688 409:1.820655 410:2.248645 411:2.275664 412:2.062741 413:0.574077 437:0.1616011 438:1.818644 439:2.302438 440:2.428565 441:2.028067 442:0.2357096 456:0.9300564 457:2.076293 458:2.19811 459:2.174911 460:0.951127 466:0.1616226 467:1.897337 468:2.427496 469:2.605454 470:1.229903 483:2.163782 484:2.803286 485:2.595691 486:2.441139 487:1.770834 488:0.5216112 495:0.2950579 496:2.41422 497:2.605474 498:2.015878 511:2.157669 512:2.806373 513:2.62421 514:2.084535 515:0.2040727 523:0.4024692 524:2.406325 525:2.643768 526:2.083341 539:1.045328 540:2.608505 541:2.559548 542:2.457402 543:1.438744 544:0.1956285 550:0.2695364 551:1.984352 552:2.455871 553:2.626465 554:1.098074 568:0.9113276 569:2.354651 570:2.369378 571:2.315704 572:1.836545 573:0.5929955 574:0.1793394 575:0.1793801 576:0.5932485 577:0.5930329 578:1.958641 579:2.369159 580:2.584655 581:1.226867 597:0.823656 598:2.240493 599:2.273777 600:2.268349 601:2.276705 602:1.966309 603:1.962137 604:2.279388 605:2.284829 606:2.347742 607:2.440429 608:1.077423 609:0.2102227 626:0.2895193 627:0.851059 628:2.240299 629:2.248507 630:2.25588 631:2.253527 632:2.27088 633:2.353724 634:2.021859 635:0.9229651 655:0.009578531 656:0.2567543 657:1.221163 658:1.977397 659:2.008401 660:1.308331 661:0.2966974 662:0.1098269 
0.002478423899796986 0.5653373847956373 1 0.2706776170117393 1 0.6434547755198765 0.5292867166577523 0.422583335769084 1 218:0.2852968 219:0.696613 220:2.34174 221:2.950874 242:0.1710893 243:0.8078233 244:1.578759 245:2.135098 246:2.579395 247:3.403057 248:4.6613 249:3.308893 266:0.2907121 267:1.613455 268:1.526996 269:1.363098 270:2.178341 271:2.282791 272:2.308792 273:2.43206 274:2.107779 275:1.839761 276:1.001728 277:0.03040924 293:0.3522809 294:2.211542 295:2.465285 296:2.415465 297:2.355436 298:2.056843 299:1.528918 300:1.255834 301:0.7720314 302:0.02232257 321:1.193277 322:2.539025 323:2.325154 324:1.078931 325:0.5274804 348:0.009246243 349:1.348113 350:2.46471 351:1.560143 375:0.1089603 376:1.837275 377:2.398366 378:1.783603 379:0.8253846 380:0.1790314 403:0.821401 404:2.343983 405:2.348801 406:2.275359 407:2.23278 408:1.743179 409:0.3732342 431:0.3686195 432:0.997291 433:0.2554243 434:0.248521 435:1.438594 436:2.323773 437:0.2513795 462:0.3009828 463:1.890106 464:2.148809 465:0.1781779 482:0.1872606 483:2.96232 484:0.6229524 489:0.03683234 490:1.036034 491:2.26848 492:1.548457 510:3.37713 511:2.359556 512:0.4104181 513:0.9127685 514:1.715502 515:1.76863 516:1.734584 517:1.971122 518:2.325295 519:1.214457 520:0.3152478 538:2.860812 539:3.123686 540:2.749213 541:2.569665 542:2.467115 543:2.404217 544:2.366173 545:2.135322 546:1.150747 547:0.1165447 566:0.3534873 567:1.587901 568:1.366991 569:1.260374 570:1.030165 571:0.6590146 572:0.9227961 573:0.1347717 
0.5800114433640172 0 0.07035085099440065 0 0.1766673529791584 1 0 0 0.83817223594532 124:0.2640771 125:2.731079 126:2.450086 127:1.294122 128:0.3572071 151:0.2797354 152:2.095415 153:2.623619 154:2.447661 155:2.346635 156:2.088886 157:2.009556 158:1.484098 159:0.5262253 178:0.198286 179:1.953355 180:2.476268 181:2.336227 182:2.277441 183:2.246357 184:2.242802 185:2.243918 186:2.255432 187:2.103509 188:0.4923243 205:0.01264336 206:2.065735 207:2.471237 208:2.342534 209:2.289731 210:0.9774904 211:2.100354 212:2.287839 213:2.286939 214:2.285784 215:2.27062 216:1.41788 232:0.2206105 233:2.164062 234:2.50953 235:2.343886 236:2.133376 237:0.5574226 243:0.3769842 244:0.3720063 260:0.4752884 261:2.685156 262:2.404594 263:2.286057 264:2.213713 265:1.203786 266:0.663187 267:0.09167357 288:0.1370472 289:0.734338 290:2.013989 291:2.232489 292:2.274722 293:2.336179 294:2.432696 295:1.844111 296:0.6846989 319:0.8426461 320:0.9925901 321:1.828408 322:2.529029 323:2.451627 324:2.214154 325:1.332582 326:0.7635423 350:0.6113258 351:1.615206 352:2.280289 353:2.302363 354:1.726745 355:0.7011282 379:0.08780688 380:0.5012879 381:1.62813 382:2.254964 383:2.168448 384:1.088935 385:0.3333538 410:1.324301 411:2.266669 412:2.417725 413:2.243153 438:0.4169573 439:1.346881 440:2.418966 441:2.634397 467:0.3868356 468:2.130056 469:2.605454 495:0.1936318 496:1.918017 497:2.595176 498:1.482263 513:0.01037237 514:0.9874112 515:0.4470163 522:0.1450658 523:1.655612 524:2.396814 525:2.633319 526:1.764712 541:0.01011679 542:2.447689 543:1.694311 550:1.716048 551:2.304409 552:2.446164 553:2.746345 554:1.882413 569:0.009770338 570:2.369378 571:2.315704 572:0.6513855 576:0.7101005 577:1.716201 578:2.301629 579:2.369159 580:2.584655 581:2.275064 597:0.009690071 598:1.928293 599:2.26479 600:2.035238 601:1.952747 602:0.6614772 603:1.781295 604:2.180284 605:2.275798 606:2.347742 607:2.520443 608:2.051689 609:0.2102227 626:0.2895193 627:1.845454 628:2.231444 629:2.23962 630:2.25588 631:2.244619 632:2.261904 633:2.344421 634:2.182803 635:1.049873 636:0.2805727 655:0.2969344 656:1.934827 657:2.279504 658:2.294868 659:2.332337 660:2.442218 661:1.780184 
0.3234391073251231 0.02866851970466859 0 0 0 0 0 0 0 219:0.4833641 220:0.7044259 221:1.039832 222:1.738165 243:0.2602986 244:1.052506 245:1.905312 246:2.167559 247:3.336068 248:4.642948 249:6.976249 250:10.10158 269:0.2470043 270:1.581783 271:2.18393 272:2.299702 273:2.422485 274:2.745517 275:3.397514 276:4.781832 277:6.507576 278:7.081976 293:0.3893631 294:1.44231 295:0.5920565 296:1.416946 297:2.374056 298:2.311673 299:1.963166 300:0.9533342 301:0.3224941 302:1.026838 303:0.09783063 320:0.5698202 321:1.992002 322:2.44906 323:1.109069 324:1.032021 325:0.7680855 326:0.1636162 327:0.08148889 346:0.02746981 347:0.9246094 348:1.923219 349:2.359198 350:1.174134 374:0.8849447 375:2.297245 376:2.345065 377:0.8370768 402:1.818888 403:2.30905 404:1.255046 405:0.04623625 429:0.1355345 430:1.488816 431:2.340734 432:2.354715 433:2.134617 434:1.446747 435:1.065625 457:0.1986883 458:0.4472345 459:1.016842 460:1.24952 461:1.908262 462:2.239666 463:2.227308 464:1.825139 465:0.935434 484:1.034546 485:0.9131087 489:0.07366467 490:0.3243236 491:0.9556197 492:1.825926 493:1.952361 494:0.08185886 511:1.223941 512:1.996629 513:0.280054 519:0.1889155 520:1.963543 521:1.141948 522:0.03626646 539:2.398105 540:1.872495 545:0.4878107 546:0.8245511 547:1.730241 548:2.276385 549:0.5331368 567:2.412624 568:2.691596 569:1.719579 570:1.582707 571:2.324857 572:2.30699 573:2.282134 574:2.27761 575:2.224313 576:1.051668 595:0.1569852 596:1.651181 597:2.374067 598:2.323134 599:2.273777 600:2.133862 601:1.781769 602:1.096421 603:0.6148631 625:0.316982 626:0.3362159 627:0.3225066 628:0.2302284 
0.3348077289999795 0 0 0 0 0.6944461607065716 0 0.1725346892195224 0.8712445468934074 160:0.2238704 162:0.8260152 163:3.159972 164:4.464048 165:11.19635 166:9.632548 186:0.4813966 187:1.174687 188:1.998257 189:1.355794 190:3.186058 191:4.105219 192:5.546236 193:7.440542 194:2.929381 207:0.4412923 208:1.301408 209:1.272073 210:0.886982 211:0.8872187 212:1.271022 213:2.02376 214:2.249645 215:2.27963 216:2.329375 217:2.507153 218:2.887204 219:3.596798 220:4.512134 221:3.541049 235:2.176466 236:2.287052 237:2.274644 238:2.269896 239:2.272519 240:2.282525 241:2.284615 242:2.278189 243:2.270881 244:2.295551 245:2.422331 246:2.741962 247:2.639379 248:0.9542819 262:0.3339713 263:2.19534 264:2.267487 265:2.27282 266:2.298443 267:2.319341 268:2.32729 269:2.314522 270:2.286806 271:2.192918 272:1.954293 273:1.187305 274:0.7890659 275:0.09400237 291:2.114989 292:2.283748 293:2.345449 294:2.432696 295:2.455579 296:2.405956 297:2.355436 298:1.774709 299:0.4613893 319:2.120206 320:2.325234 321:2.425046 322:2.119186 323:1.303643 324:1.060167 325:0.2868753 326:0.1181673 347:1.885478 348:2.339299 349:2.33031 350:0.2134789 375:0.3904409 376:2.3266 377:2.379555 378:1.213586 404:1.042796 405:2.339554 406:2.051406 407:0.4131522 432:0.1385126 433:1.331855 434:2.245565 435:1.642839 461:0.08178267 462:1.646553 463:2.227308 464:0.6653216 490:0.5675664 491:2.259549 492:2.157099 493:0.989676 494:0.01819086 518:0.03661882 519:1.439356 520:2.278791 521:2.29296 522:0.1541324 539:1.106818 540:0.9524831 541:0.04046716 547:0.3137743 548:2.276385 549:2.286163 550:0.9793155 567:1.846396 568:1.769671 569:0.2051771 570:0.1966678 571:0.1189887 572:0.06332914 573:0.08984781 574:0.4214475 575:1.148033 576:2.274119 577:2.273293 578:1.823251 595:1.962315 596:2.730385 597:2.451588 598:2.323134 599:1.977198 600:1.757298 601:1.889755 602:2.292517 603:2.287653 604:2.279388 605:2.284829 606:1.967278 623:1.28558 624:2.690624 625:2.586982 626:2.362851 627:2.266505 628:2.240299 629:2.248507 630:2.25588 631:2.253527 632:2.27088 633:2.316511 634:0.764484 652:1.134264 653:3.066669 654:2.650114 655:2.423368 656:2.319958 657:2.28855 658:2.294868 659:2.341592 660:2.112712 661:0.8265141 681:1.089158 682:3.261942 683:2.084178 684:2.881397 685:2.782815 686:2.330056 687:1.89516 688:0.2276684 
0 0 0 0 0 0.5876629324090428 0 0 0 189:0.09684241 190:0.3211752 191:0.405654 192:0.548047 211:0.3349703 212:0.9714239 213:1.4248 214:1.418451 215:0.6397381 216:1.187705 217:1.872932 218:2.887204 219:3.596798 220:4.81675 238:0.9420517 239:2.281501 240:2.282525 241:2.284615 242:2.278189 243:2.270881 244:2.295551 245:2.422331 246:2.741962 247:3.108304 248:3.762073 265:0.9702155 266:2.271188 267:2.328509 268:2.32729 269:2.314522 270:2.286806 271:2.273804 272:1.881575 273:1.847983 274:1.578132 275:0.5505853 292:1.507454 293:2.299097 294:2.432696 295:2.096462 296:1.711747 297:1.517534 298:0.5460644 299:0.542811 300:0.1283334 319:0.2627606 320:2.113849 321:2.434669 322:2.529029 323:0.2237596 347:0.7705079 348:2.339299 349:2.436233 350:2.455007 351:0.8993763 352:0.793144 375:0.444921 376:2.197344 377:2.379555 378:2.32604 379:2.230295 380:2.246844 381:1.937384 382:0.7932483 404:0.0922828 405:1.128164 406:1.18247 407:2.23278 408:2.309027 409:2.303128 410:2.23087 411:1.394182 412:0.2782302 437:0.33218 438:2.262215 439:2.311538 440:1.737432 453:4.9571 454:0.1987736 465:0.1425423 466:1.840702 467:2.330224 468:1.727073 481:7.666811 482:3.370692 483:1.004613 493:0.05398233 494:1.655368 495:2.332802 496:1.555407 509:3.905617 510:3.764935 511:3.040925 512:1.619488 513:0.3837777 521:0.5437849 522:2.293853 523:2.314198 524:0.5706699 538:1.735247 539:2.828535 540:2.738389 541:2.387563 542:0.8741748 543:0.1135851 548:0.4228857 549:2.042185 550:2.27309 551:1.655151 552:0.165019 567:0.677012 568:2.055786 569:2.471895 570:2.369378 571:1.876361 572:1.755122 573:1.743047 574:1.739592 575:1.748956 576:2.049404 577:2.273293 578:2.283577 579:0.674227 596:0.1079203 597:1.298469 598:2.139487 599:2.273777 600:2.268349 601:2.276705 602:2.292517 603:2.296695 604:2.279388 605:2.176458 606:0.8166058 607:0.1400246 626:0.2521619 627:1.191483 628:1.38137 629:1.386431 630:1.390977 631:0.3206599 632:0.3231291 633:0.288401 
0.6548910297405299 0 0 0.3245972554844507 0.2333785938503571 1 0.2628624748702002 0 0.7562780262351447 150:1.375968 151:3.370145 152:2.952104 153:2.63403 154:2.457336 155:2.355947 156:1.822024 157:1.824343 158:2.416416 159:2.560288 160:0.9626429 161:0.3655803 178:2.441397 179:2.708797 180:2.486094 181:2.326957 182:2.277441 183:2.237443 184:2.251702 185:2.235014 186:2.255432 187:2.285631 188:2.442315 189:2.109013 204:0.4539246 205:2.490741 206:2.747103 207:2.481043 208:2.361126 209:2.298817 210:2.298913 211:2.290473 212:2.305997 213:2.296015 214:2.294819 215:2.27963 216:2.338582 217:2.507153 232:0.3860684 233:2.220713 234:2.519488 235:2.334585 236:2.287052 237:2.256662 238:2.269896 239:2.254554 240:2.282525 241:2.266555 242:2.278189 243:2.252929 244:1.778372 245:0.7946778 262:1.889324 263:2.295128 264:2.276449 265:2.27282 290:0.7962284 291:2.268642 292:2.283748 293:2.326908 318:2.349475 319:2.29236 320:2.334425 321:0.8083488 325:0.5274804 326:0.7726321 327:0.7696173 328:0.5284654 346:2.31662 347:2.275264 348:2.339299 349:0.7992385 352:1.523197 353:2.038456 354:2.275346 355:2.256195 356:2.116521 357:1.76882 373:1.629605 374:2.317278 375:2.297245 376:2.345065 377:1.307345 378:1.29633 379:2.221514 380:2.273699 381:2.301212 382:2.263877 383:2.267014 384:2.426224 385:2.720598 386:2.093724 401:1.610132 402:2.312455 403:2.290796 404:2.334755 405:2.32106 406:2.266401 407:2.206409 408:2.309027 409:2.284922 410:2.248645 411:2.257675 412:2.427319 413:2.668395 414:2.724214 415:0.8064313 428:0.3139339 429:1.907164 430:2.348815 431:2.331518 432:2.345481 433:2.307941 434:2.25444 435:2.246693 436:2.067609 437:1.508277 440:2.438164 441:2.644851 442:2.993512 443:1.185004 456:0.3063715 457:1.947145 458:2.407454 459:2.363215 460:2.359168 461:2.280828 462:1.735077 463:0.7365201 464:0.5034866 468:2.427496 469:2.584857 470:2.963482 471:1.17939 485:1.1696 486:2.500199 487:2.448202 488:2.143348 489:0.5156527 495:1.558275 496:2.423763 497:2.605474 498:2.00402 514:0.8378035 515:0.806573 516:0.5337182 522:0.516797 523:2.048934 524:2.406325 525:2.622869 526:2.058831 550:1.266821 551:2.313553 552:2.465578 553:2.757243 554:1.490244 576:0.512351 577:1.509538 578:2.283577 579:2.35043 580:2.584655 581:1.643764 600:0.7620937 601:0.764901 602:0.7702131 603:0.7685789 604:2.288398 605:2.284829 606:2.357021 607:2.530444 608:1.93707 626:0.5323419 627:1.505031 628:2.240299 629:2.230732 630:2.25588 631:2.235712 632:2.27088 633:2.335118 634:2.544927 635:2.895803 636:0.7856035 654:0.8903543 655:2.423368 656:2.329128 657:2.28855 658:2.303939 659:2.341592 660:2.4616 661:2.680873 662:1.39114 682:1.226837 683:3.113861 684:2.881397 685:2.760816 686:2.164412 687:0.9591358 688:1.062453 689:1.188138 
0.3369780943153785 0.324517162146285 0 0.5366055048483396 0.4554754194623922 0 0.1735920852365958 0.3476953035540289 0.2729160616521745 162:0.1943565 163:0.2738642 185:0.06233107 186:0.1693803 187:0.1730159 188:0.1834149 189:1.452636 190:3.211752 191:4.121445 209:0.118121 211:0.07242602 212:0.5901173 213:1.687979 214:2.294819 215:2.288641 216:2.338582 217:2.517062 218:2.898616 219:3.625231 236:0.2079138 237:1.258696 238:1.139434 239:1.661723 240:2.291546 241:2.293646 242:2.287194 243:2.279857 244:2.304624 245:2.431906 246:2.438504 247:2.170454 263:0.07257323 264:1.165112 265:2.281803 266:2.307527 267:1.723463 268:0.8554859 269:1.793069 270:1.961411 271:1.950259 272:0.954422 273:0.8904787 274:0.05404561 290:0.07493914 291:1.319609 292:2.292775 293:2.262014 294:1.701926 295:0.1844111 318:1.193237 319:2.301421 320:2.334425 321:2.261452 322:1.409459 323:0.486434 324:0.3283703 346:1.538309 347:2.302459 348:2.348546 349:2.445862 350:2.46471 351:2.331037 352:2.082003 353:1.255834 354:0.0719477 374:0.6112505 375:1.743364 376:1.209463 377:1.805829 378:1.765216 379:2.116146 380:2.273699 381:2.310308 382:1.345848 383:0.07168425 407:0.4307332 408:1.478507 409:1.902584 410:2.257533 411:0.8185195 412:0.06715901 424:15.04989 425:3.691126 437:0.556626 438:2.164629 439:2.311538 440:0.2303777 452:9.349961 453:8.072992 454:3.451432 465:0.9888874 466:2.226801 467:2.053913 468:0.1631124 480:1.955557 481:6.459439 482:4.272947 483:2.575931 484:0.8565596 492:0.6086422 493:2.222272 494:2.310239 495:1.419966 509:0.6861219 510:3.457923 511:3.204958 512:2.773096 513:1.441759 514:0.3191632 519:0.6657023 520:1.855458 521:2.302023 522:2.30292 523:0.4390573 538:0.4220871 539:2.016868 540:2.749213 541:2.569665 542:2.282567 543:1.315694 544:0.9315644 545:1.196517 546:2.029664 547:2.223315 548:2.285382 549:2.295199 550:1.114084 551:0.03657791 567:0.03692792 568:1.07028 569:1.602335 570:2.378744 571:2.324857 572:2.297943 573:2.282134 574:2.27761 575:2.278127 576:2.283108 577:1.114183 578:0.03610399 597:0.02907021 598:0.3581116 599:1.276191 600:1.990409 601:2.285704 602:2.301578 603:1.500989 604:0.3783965 605:0.02709284 628:0.0708395 629:0.1066486 630:0.1069983 631:0.02672166 
0.03494589582758582 0 0.3986996481497369 0 0.5543780740309557 0.3152256469193127 0.1523564157648651 0 1 124:0.3300963 125:1.73016 126:1.544065 127:1.436594 128:0.7374598 132:1.502878 133:2.327897 134:5.312466 135:8.830231 136:5.453691 150:1.935956 151:3.196976 152:2.801605 153:2.623619 154:2.437987 155:2.346635 156:2.272929 157:2.22255 158:1.151127 159:2.216218 160:2.787187 161:3.290223 162:3.806149 163:2.759709 164:0.1728019 177:1.835889 178:3.061041 179:2.719589 180:2.476268 181:1.779983 182:1.422275 183:0.7933564 184:2.251702 185:2.243918 186:2.246517 187:2.021554 188:1.52524 189:0.6456161 190:0.2826342 204:1.252206 205:3.110266 206:2.725472 207:1.333683 208:0.362535 209:0.1362935 212:1.271022 213:1.978384 214:1.11127 215:0.2432807 232:1.296087 233:2.855203 234:2.50953 235:1.841625 240:0.2255459 241:0.2799331 260:0.3211408 261:2.077799 262:2.404594 263:2.159054 264:0.7797287 289:0.2689125 290:1.826642 291:2.277681 292:2.157375 293:0.7879968 318:0.2312475 319:1.775899 320:2.316044 321:2.328814 322:0.8196852 347:0.2084904 348:1.840002 349:2.426604 350:2.387082 351:0.7066528 376:0.1754183 377:1.909288 378:2.316846 379:2.212733 380:0.6355614 405:0.9062305 406:2.266401 407:2.22399 408:2.32728 409:0.6918488 433:0.01824459 434:0.8520719 435:2.237813 436:2.314624 437:2.217526 438:0.2217858 462:0.01770487 463:0.8607524 464:1.83413 465:2.245042 466:1.616226 467:0.5894638 492:0.7429015 493:2.23127 494:2.292048 495:1.81645 496:0.563 513:0.5912251 514:0.8477773 515:0.3401211 521:0.9697497 522:2.22132 523:2.305051 524:2.263657 525:0.5433832 540:1.06072 541:2.448263 542:1.796915 550:0.9793155 551:2.231253 552:2.446164 553:1.907184 554:0.2222293 567:0.9108888 568:2.585627 569:2.462125 570:1.498421 571:1.327182 572:0.3709278 573:0.368376 574:0.3676457 575:0.1704111 579:1.14244 580:2.574439 581:3.001656 582:2.522916 595:0.510202 596:2.395832 597:2.441898 598:2.313952 599:2.26479 600:2.259384 601:2.267707 602:2.283455 603:1.835547 604:1.45052 605:1.444951 606:1.484738 607:1.890332 608:2.888412 609:3.531742 610:3.88645 624:1.069042 625:2.433604 626:2.297475 627:2.132127 628:2.107475 629:2.195183 630:2.246963 631:2.244619 632:2.27088 633:2.344421 634:2.534868 635:2.90734 636:3.535216 637:4.505275 638:3.185305 654:0.6599097 657:0.6874694 658:1.079405 659:1.101381 660:2.451909 661:2.670276 662:3.075152 663:3.750788 664:2.784047 665:2.38072 
