SVM-light Version V6.20
2 # kernel type
3 # kernel parameter -d 
1 # kernel parameter -g 
1 # kernel parameter -s 
1 # kernel parameter -r 
empty# kernel parameter -u 
14 # highest feature index 
29 # number of training documents 
35 # number of support vectors plus 1 
0 # threshold b, each following line is a SV (starting with alpha*y)
-0.86402837828500833605716024976573 1:1 2:-0.74947369 3:-0.1814286 5:-0.53846151 6:-0.25 7:-0.88877189 8:-1 9:-1 10:-1 11:1 13:-0.89999998 14:-0.97575998 #
-0.57085545004008997338473818672355 1:-1 2:-0.73172933 3:-0.5 5:0.07692308 6:-0.25 7:-0.98842108 8:-1 9:-1 10:-1 11:-1 13:-0.83999997 14:-1 #
-0.9526905082192120843842531030532 1:-1 2:-0.52390981 3:-0.875 4:-1 5:-0.53846151 6:-0.25 7:-0.91228068 8:-1 9:-1 10:-1 11:1 13:-0.72000003 14:-1 #
1.0227537581373613573276770694065 1:-1 2:-0.76180452 3:-0.1785714 4:-1 5:-0.38461539 6:-0.5 7:-1 8:1 9:1 10:-0.67164183 11:1 13:-1 14:-1 #
0.98055812630064831392218138716999 1:1 2:-0.80691731 3:-0.4164286 5:-0.2307692 6:-0.25 7:-0.86245608 8:1 9:1 10:-0.5820896 11:-1 13:-0.94 14:-0.99684 #
0.6502359304072736767565743321029 1:-1 2:-0.93744361 3:-0.95821428 5:0.07692308 6:0.75 7:-0.89473683 8:1 9:1 10:-0.9402985 11:-1 13:-0.89999998 14:-1 #
-2.8179193538072126104380207139988e-07 1:1 2:-0.88962412 3:-0.53571433 5:-0.69230771 6:-0.25 7:-0.9912281 8:-1 9:-1 10:-1 11:-1 13:-0.94 14:-0.99800003 #
0.82931746911337633765270993535523 1:-1 2:0.35097739 3:-0.68142861 5:0.53846151 6:0.75 7:-0.78666669 8:1 9:1 10:-0.82089549 11:-1 13:-0.95700002 14:-0.98879999 #
-0.72285546530614697147143488109577 1:1 2:-0.57654142 3:-0.9285714 4:-1 5:-0.8461538 6:0.75 7:-0.78947371 8:-1 9:-1 10:-1 11:-1 13:-0.824 14:-0.98926002 #
-1.0392490851725690870210883076652 1:-1 2:0.2631579 3:-0.4942857 5:-0.53846151 6:0.75 7:-0.52631581 8:1 9:1 10:-0.91044778 11:1 13:-0.89999998 14:-0.99900001 #
0.31543826735682700679319623304764 1:1 2:-0.40601501 3:-0.875 5:1 6:0.75 7:-0.68421048 8:1 9:1 10:-0.880597 11:1 13:-0.74699998 14:-0.98286003 #
-1.0966283969793266805936582386494e-07 1:1 2:-0.1678196 3:-0.64285707 5:0.53846151 6:0.75 7:-0.64912277 8:1 9:1 10:-0.82089549 11:1 13:-0.52999997 14:-1 #
-3.9999999941722799157162171468372 1:1 2:-0.79187971 3:-0.91071433 4:-1 5:0.07692308 6:0.75 7:-0.90350878 8:1 9:1 10:-0.91044778 11:1 13:-0.86000001 14:-0.99580002 #
0.29767181844116141764544636316714 1:1 2:-0.36330831 3:-0.64285707 5:1 6:0.75 7:-0.47368419 8:1 9:1 10:-0.82089549 11:1 13:-1 14:-0.98000002 #
-0.89482374558957933352587588160532 1:1 2:0.34827071 3:-0.80642861 5:0.07692308 6:-0.25 7:-0.83052629 8:-1 9:-1 10:-1 11:1 13:-0.68000001 14:-1 #
3.9999999364480296470958364807302 1:1 2:0.032481261 3:-0.56857139 5:-0.53846151 6:-0.25 7:-0.99719298 8:-1 9:-1 10:-1 11:-1 13:-1 14:-0.94620001 #
0.25101672678268271976520509269903 1:1 2:-0.52390981 3:-0.6785714 5:0.2307692 6:-0.25 7:-0.47368419 8:1 9:1 10:-0.9402985 11:1 13:-0.67000002 14:-1 #
0.4274849889614183995334428800561 1:-1 2:-0.84451127 3:-0.3571429 5:-0.2307692 6:-0.25 7:-0.94736838 8:1 9:1 10:-0.9402985 11:-1 13:-0.912 14:-0.98817998 #
-0.16132855709889526441003226864268 1:1 2:-0.81203008 3:-0.91071433 4:-1 5:-0.53846151 6:-0.25 7:-0.9912281 8:-1 9:-1 10:-1 11:-1 13:-0.86000001 14:-0.99992001 #
0.37585288286541590485612118754943 1:-1 2:-0.7392481 3:-0.59535712 5:0.53846151 6:-0.25 7:-0.81859648 8:1 9:1 10:-0.79104477 11:-1 13:-0.87099999 14:-0.93485999 #
-0.58492863638237768686423123654095 1:-1 2:-0.56631583 3:-0.95821428 5:-0.2307692 6:-0.25 7:-0.99719298 8:-1 9:-1 10:-1 11:-1 13:-0.74000001 14:-0.97992003 #
-0.99473573435912998608188217986026 1:-1 2:-0.8369925 3:-0.95821428 4:-1 5:-0.2307692 6:-0.25 7:-0.95894742 8:1 9:-1 10:-1 11:1 13:-0.83999997 14:-1 #
-3.3755246632949376106580530176871 1:1 2:-0.1753384 3:-0.90464288 5:-0.8461538 6:-0.25 7:-0.98842108 8:-1 9:-1 10:-1 11:-1 13:-0.83200002 14:-1 #
-1.0026250408597321417403236409882 1:1 2:-0.1630075 3:-0.875 5:-0.53846151 6:-0.25 7:-0.98526323 8:1 9:-1 10:-1 11:-1 13:-0.83999997 14:-1 #
-1.4039006259205322191263576314668 1:1 2:-0.82706767 3:-0.31535709 5:-0.2307692 6:-0.25 7:-0.94456142 8:-1 9:-1 10:-1 11:-1 13:-0.92000002 14:-0.99299997 #
-3.7791714108115215253747010137886e-07 1:1 2:-0.4285714 3:-0.89285707 5:0.8461538 6:0.75 7:-0.61403513 8:1 9:1 10:-0.91044778 11:1 13:-1 14:-1 #
-0.16132771551610181059999149510986 1:1 2:-0.7368421 3:-0.9910714 4:-1 5:-0.53846151 6:-0.25 7:-0.9912281 8:-1 9:-1 10:-1 11:-1 13:-0.80000001 14:-0.99860001 #
3.5789508240404823702363046322716 1:1 2:-0.4159399 3:-0.78285712 4:-1 5:0.07692308 6:0.75 7:-0.8568421 8:1 9:1 10:-0.97014928 11:1 13:-0.81999999 14:-0.63946003 #
0.26622196249502683151888504653471 1:-1 2:-0.49112779 3:-0.1428571 5:0.07692308 6:-0.25 7:-0.85964912 8:1 9:1 10:-0.97014928 11:-1 13:-0.77999997 14:-0.99962002 #
0.62208684850655959763798819039948 1:1 2:-0.7193985 3:-0.8214286 5:0.07692308 6:-0.25 7:-0.9238596 8:1 9:1 10:-0.67164183 11:1 13:-0.94 14:-0.95631999 #
0.56803567197779025743642478119 1:1 2:-0.60150379 3:-0.9464286 5:0.07692308 6:0.75 7:-0.70175439 8:1 9:1 10:-0.91044778 11:1 13:-0.68800002 14:-0.99699998 #
-0.97639457605761226233198613044806 1:-1 2:-0.79939848 3:-0.25 4:-1 5:1 6:0.75 7:-1 8:-1 9:-1 10:-1 11:1 13:-0.84600002 14:-0.99936002 #
-1.0149240269404169456635145252221 1:1 2:0.16030081 3:-0.90178567 4:-1 5:0.07692308 6:0.75 7:-0.33614039 8:1 9:-1 10:-1 11:1 13:-0.80000001 14:-0.99800003 #
0.47275779542038892655497761552397 1:1 2:-0.7193985 3:-0.1785714 5:0.2307692 6:0.75 7:-0.85087723 8:1 9:1 10:-0.67164183 11:1 13:-0.70999998 14:-0.99431998 #
